-0.0256003
0.0285224
0.0173625
-0.00685907
-0.00559353
-0.0474721
-0.0235217
-0.0148974
-0.00478779
-0.00941277
-0.0205363
0.00660054
0.0495869
0.0201186
-0.0180928
0.0203032
0.0302233
-0.0257729
-0.0285932
0.0306873
0.0295386
0.00818857
-0.0284659
-0.0220206
0.0204838
-0.0405854
0.0315921
-0.0188604
0.0295296
0.0385395
-0.0414456
-0.041511
0.00647776
-0.039934
0.00791292
0.0449076
-0.0104624
0.020324
-0.0456619
0.000833237
0.0368456
-0.0345022
0.00704968
0.0208034
0.0288761
0.0298772
0.0237807
-0.0325185
-0.0279053
0.0226583
-0.0187931
-0.00941258
0.0171747
0.0214488
0.0104581
0.0304466
-0.0374635
0.0187038
-0.0373638
-0.00281874
0.052528
0.0317809
0.00777797
0.00563066
0.0153047
-0.00124713
-0.00734497
-0.0324247
0.00855511
0.00314499
-0.00715747
-0.0465482
-0.0326661
-0.0186403
0.0500496
-0.0318171
-0.0154077
0.00130784
0.0420849
0.00992761
-0.00911108
-0.0331617
0.0311837
-0.0115864
-0.0172389
-0.0149178
-0.0109302
0.00354725
-0.0425247
-0.0337104
-0.0223206
0.00132674
0.0226628
-0.0106167
0.0490965
-0.0445961
-0.0415154
-0.0195965
-0.0324289
-0.0274235
-0.0364774
-0.0091175
-0.00772793
-0.0346129
0.0380547
-0.0172748
0.0198318
0.00032897
-0.0506504
0.00519371
-0.0387924
-0.0386811
-0.00515048
0.042283
0.0380241
-0.02659
0.021647
0.0370682
0.0157802
0.0373483
0.0451439
0.0368824
0.00520979
0.0440792
-0.0293344
0.0388228
0.031885
-0.0455343
-0.00106499
-0.033509
-0.036063
0.0167388
-0.0407002
-0.0153116
0.032052
-0.0168881
-0.0373272
0.0291947
-0.00914554
-0.0503233
0.0224681
0.0363275
0.0152744
-0.00839491
0.0314921
-0.0066213
0.00163551
0.00598374
-0.0141386
0.032533
0.00144464
-0.0257014
0.0259385
-0.0392566
-0.0355575
-0.0100218
-0.0505389
-0.0432696
-0.0176169
0.0365289
0.0405292
0.0025845
-0.0456329
0.00957935
-0.03578
-0.0464465
-0.0146614
-0.000122759
-0.0478447
0.0184725
-0.0308998
0.0354054
0.0128834
-0.0166454
0.0233733
-0.00212041
0.0241606
-0.0373732
0.0462055
0.0265686
-0.0269259
0.04277
-0.0246168
0.0074893
-0.0485663
0.0276301
0.0408812
0.0270529
-0.0489219
0.0262772
-0.0280825
0.00253346
-0.0121442
0.0356573
0.0332479
0.0268407
-0.0322495
0.0138369
-0.0352309
-0.0267593
-0.0378854
0.0361502
-0.00331156
-0.00166352
0.0173501
0.0120987
-0.0339874
-0.000357457
-0.0220819
-0.0418869
0.0355563
0.0311207
0.00399396
0.010031
-0.00800904
0.00468861
-0.00863626
0.0278801
-0.0195812
-0.0335333
0.0129805
0.0197508
-0.0204791
0.0483103
0.0525338
0.00527012
0.0417067
0.00551403
-0.00805539
-0.0193448
0.037277
-0.03478
-0.0319062
-0.0296277
-0.0343491
-0.000765634
-0.0351784
-0.00696743
-0.0297789
0.0295798
0.0280234
-0.0305087
-0.0156615
-0.0258143
0.0375042
0.0295772
-0.000117759
0.0301711
0.0225019
0.0397895
-0.00124714
-0.0441391
-0.0206025
0.0486968
-0.0326466
0.0341395
0.00250177
0.044497
0.0187346
-0.0516461
-0.00259167
-0.0183659
-0.0121754
-0.0317901
0.0350822
-0.0110558
-0.027406
0.0396273
-0.0427209
0.0188674
-0.0256708
0.0336637
0.0432886
0.00835278
-0.00140699
-0.0230037
-0.00622128
-0.0169037
0.0361269
0.00198277
-0.0386914
-0.00620029
-0.0264347
-0.000556177
0.0377975
0.0425788
-0.0233721
-0.0189463
-0.0224888
-0.0247251
0.0234551
0.0234368
0.0295351
-0.016187
0.0239036
-0.0353116
0.0216584
-0.0299691
-0.0453542
-0.0462815
-0.0227307
-0.038026
-0.0178091
0.0329435
-0.00316444
0.0359938
0.0177541
-0.016464
0.0299407
0.0200099
-0.0243847
0.0339021
-0.0318916
-0.000347284
-0.00514892
-0.0113364
0.0273773
-0.0451389
-0.0224516
0.0277766
-0.0481019
-0.00826823
-0.024716
0.00189083
0.0333727
0.00671184
-0.00471503
0.0184519
0.0162452
-0.000868913
0.0519402
0.000322769
0.00976729
0.0372589
0.000916246
0.0264456
-0.010056
0.00630437
-0.0201393
0.000488457
-0.0128721
-0.0363146
-0.0315362
0.00868185
0.00972704
-0.0331186
-0.0362796
-0.00681651
0.00787217
0.0126195
-0.0158586
0.00868835
-0.00301018
-0.0327995
-0.0339802
0.0188627
0.0113369
-0.0160936
-0.000323449
-0.011767
0.0520923
-0.0222816
0.00698429
-0.0221331
0.00967156
-0.0365037
0.00129743
-0.0471456
-0.00276691
0.0237106
-0.0360863
0.0251759
0.00696643
0.00489251
0.0286064
-0.00987785
0.00454841
0.0358567
-0.00628248
0.0390427
-0.0225531
-0.0231313
0.0444571
0.0240076
-0.00579687
-0.0172856
-0.0304489
-0.00312718
-0.0326404
-0.00669804
-0.044194
0.0126474
0.000786789
-0.0112324
-0.0140262
0.0502498
0.03992
0.0172191
-0.0174679
0.026892
0.0379182
-0.0220835
-0.0403914
0.02287
0.0375014
0.0394044
-0.0452676
0.0342811
-0.000379967
-0.0344728
0.00414448
0.00213831
0.000993302
0.0436731
0.0341224
0.0165483
0.000309002
-0.0166798
0.0011503
0.0288654
0.0202159
0.0355247
-0.00595695
0.0150625
-0.0485079
-0.03506
-0.00572728
0.0219526
0.0245044
-0.000752669
-0.00249753
0.021618
0.0428223
-0.0389998
-0.00461867
-0.00380779
-0.00488273
0.030717
0.0105141
-0.0448113
-0.0489503
-0.0209875
-0.00331892
0.0218685
0.00799308
0.0334922
-0.0143737
-0.00362494
-0.00201681
-0.0436462
-0.0164441
0.0119157
-0.0108627
0.0150294
-0.0213766
-0.0239164
-0.0330425
-0.0318344
-0.0353753
-0.0156042
0.0130104
0.018795
-0.0140014
-0.0264307
-0.0158922
-0.0222716
0.0135558
-0.00942985
-0.00833946
0.00761956
0.00102627
-0.0256537
0.00140107
-0.0545135
-0.00246516
-0.0235719
-0.025628
-0.00324879
-0.00970994
0.0161806
0.0123736
-0.0175681
0.0406207
0.014746
-0.0046187
-0.0210962
0.0318503
0.028682
-0.0096482
-0.0227075
-0.0417484
-0.006579
-0.00485782
-0.0245091
0.0333762
0.0219945
0.043299
0.00968384
-0.0185547
0.029268
-0.0127129
0.00691117
-0.0434786
-0.000117105
-0.013474
0.0134211
0.0274054
0.0338865
0.0277541
-0.00964473
-0.028364
-0.0269611
-0.0244283
-0.0395717
0.0277492
-0.00522407
-0.0070615
-0.0238686
0.00120086
0.0117845
-0.0359207
-0.0284914
0.0441551
0.0109542
0.0314856
0.0268547
-0.0120108
-0.0314555
0.0345049
-0.0341976
0.0256834
-0.00393974
-0.0174929
-0.047288
-0.0118082
0.0395122
-0.02139
-0.00410977
-0.0269709
0.0296231
-0.0424066
0.0432847
-0.0332742
0.00611753
-0.000119515
0.0299198
-0.0228241
0.00971922
-0.00780061
0.0416502
-0.00752299
-0.0302315
-0.0144044
-0.000979912
-0.0053785
0.0425614
-0.016903
-0.0260189
0.012232
0.0373046
0.00814854
-0.0170252
-0.0143817
0.020262
-0.0352743
-0.010527
-0.0227512
0.0270291
0.0466354
0.0303784
-0.0109242
0.0157378
0.00876504
0.0183052
0.0383422
-0.0206341
-0.00573478
-0.00775806
0.0435805
-0.0339255
-0.0247081
-0.0361358
-0.0282092
0.0134363
-0.0350783
-0.0214743
0.0204871
0.0148007
0.0218201
0.0242735
-0.0414762
0.0301059
-0.0396509
-0.000863079
-0.0106773
-0.0102651
0.013746
0.0256152
-0.0178148
-0.00439165
0.0436627
-0.0319746
-0.0272552
-0.0112036
0.00551228
-0.0243559
0.0355533
0.028166
-0.0462647
-0.0162727
0.0179325
-0.0394428
-0.0231799
-0.0265844
0.042261
-0.0137998
-0.0459337
-0.0461476
-0.0217607
0.0190427
-0.0439444
0.00141465
-0.0292563
-0.00236459
0.0274978
-0.0106721
0.0209924
0.0193109
0.0165569
0.0017701
-0.0277675
0.0473832
0.00817807
-0.00870807
-0.0263895
-0.00123965
0.000618406
-0.0253225
-0.028766
-0.0407146
0.0374173
-0.0346879
-0.0377751
-0.00115443
-0.0001335
0.0255732
-0.0370858
-0.0112509
0.00626713
-0.0035281
-0.00779266
-0.0210924
-0.0196314
0.0114605
-0.0109137
-0.0170473
0.0136473
0.000394178
0.011789
0.0085816
-0.0310586
0.0121909
0.0183029
-0.024527
0.00316189
-0.0109374
0.0400208
0.0194077
0.0401413
0.00674176
-0.0419597
-0.0521848
0.00924663
0.0381154
0.0122281
-0.00373603
-0.0070192
-0.0051231
0.0386045
-0.0169995
0.0235696
-0.0425011
-0.00449645
-0.00567591
0.042931
-0.0514387
-0.0319791
0.0241376
0.0145753
0.011457
0.0323205
0.0130249
0.0120147
0.0362777
-0.0153127
0.0398166
-0.0129178
0.0151864
0.028455
-0.0208233
-0.0274009
0.00457744
-0.0345052
-0.0258245
0.0104338
-0.0459727
0.0274678
-0.000806973
0.0320881
-0.0474296
0.0296976
-0.0483784
0.052414
-0.0311757
-0.00449458
-0.00757831
-0.0308485
0.0173726
-0.0246269
-0.0467136
-0.0165402
0.00107566
-0.000673815
-0.0440167
-0.0105376
0.0325461
-0.01913
-0.0153184
0.0248362
0.00741955
0.0309614
0.0327796
0.0378453
0.0207982
-0.00223094
0.0241346
-0.00235422
-0.00142589
0.013516
0.00441949
0.0265634
-0.0150036
0.0161681
-0.0161985
-0.00184345
0.0422133
0.0225897
0.0409116
-0.0179363
-0.0175995
0.00738958
0.0270339
-0.0519856
-0.0107727
0.0227634
0.0250446
-0.00384776
-0.0498257
0.00297311
-0.017567
-0.016594
-0.0242417
-0.00650764
-0.0316377
0.00984714
-0.0292147
-0.0425401
0.00389701
-0.027019
0.0249389
-0.0343878
-0.0445198
0.0153
-0.026446
0.00465356
0.00578503
0.0289155
0.0403309
0.0265297
-0.0262153
0.0309874
0.0118925
-0.0245214
0.0344711
-0.042702
-0.0158113
-0.0455551
0.0172775
-0.00970355
0.0116535
-0.0390453
0.00181517
-0.0246472
-0.0119401
-0.0184494
0.0250848
-0.0311923
0.0153194
-0.0387253
-0.000582794
-0.0150852
-0.0150979
-0.0414923
0.00813041
0.0271014
-0.0186276
0.0175456
-0.0435766
-0.042852
0.0324348
0.0141265
-0.0156829
-0.0409646
-0.0369744
-0.0187854
-0.0352616
-0.0343867
-0.0321365
0.0191689
-0.0211192
0.0541283
-0.00504507
-0.00987082
-0.0275313
0.0115398
-0.00940381
0.00547049
0.0476021
0.00818518
-0.00502962
-0.0140385
-0.0104265
0.038681
-0.00907985
0.033511
-0.0411348
0.0144943
0.0176676
-0.0517692
0.0323047
0.0200797
0.0155627
-0.0449894
-0.0361441
0.00815062
-0.0490931
-0.0201268
0.0198795
-0.0413048
-0.0280473
0.0198964
-0.0342331
-0.0188413
0.0195578
-0.0161445
0.0419406
-0.0473146
-0.00676635
0.0262501
0.0295455
-0.0478523
0.0107288
-0.0375679
0.0108243
0.013344
0.00118102
0.0189126
-0.0347759
-0.00125942
-0.0145352
-0.0443299
-0.0363271
-0.0125973
0.0137147
-0.0219438
0.00404392
-0.00818256
0.0330961
0.0296566
0.0034763
-0.00417963
0.0200215
-0.0105991
0.0142553
-0.00146608
0.0427733
0.0115033
0.0436626
-0.0196289
-0.0418087
-0.0278443
-0.029886
0.0185436
0.0344439
0.0111011
0.0225047
-0.037055
0.00967631
0.036365
-0.0431186
0.0270239
0.0248549
0.0295448
0.00384058
0.0115334
0.0281694
0.0316091
0.0315824
0.0480204
-0.00800041
-0.00386066
0.0352606
-0.03042
-0.00630441
-0.0262993
-0.0119175
0.0130856
-0.0326412
-0.0199418
-0.0444436
0.00649523
-0.0141991
0.034505
0.0312823
-0.036218
0.000859988
0.0148463
-0.00726323
-0.0403236
0.0298174
0.0158109
0.0103042
0.0218632
0.0107713
-0.0203006
0.0329876
0.0390195
-0.00989928
0.00110323
0.0298669
0.00332722
0.0378238
-0.012571
-0.0438493
-0.0386025
0.0370574
-0.0282155
-0.0432204
-0.0246971
0.0158874
-0.0544927
-0.0470608
-0.00524063
0.00901796
0.0266278
0.0344493
0.00200687
0.00399317
0.00567399
-0.0367417
-0.00987762
0.00519618
-0.0266918
0.0232445
0.035494
-0.0149667
-0.0277513
-0.047726
-0.0513074
-0.0303666
0.0493181
-0.00296035
-0.031323
-0.0505315
-0.016097
-0.0198776
-0.0143395
0.0377585
-0.0486479
0.00388895
-0.0398386
0.0238413
0.0236882
-0.0342728
-0.0456619
0.000325942
0.0442798
-0.0102596
0.0342757
0.0139381
0.0119595
0.0116846
-0.00403945
0.00721844
-0.0493068
0.0410909
0.0453262
-0.0100717
0.0410592
0.00434115
-0.0128805
0.0038378
0.0307538
0.00894748
0.0359364
-0.0143153
-0.0354302
-0.0166257
-0.0227155
0.00118954
-0.0152189
-0.0441147
-0.0310365
0.0304516
-0.0267535
-0.0394085
-0.0390289
0.0454538
0.0454264
0.0295082
-0.0210843
-0.0213604
-0.00163466
-0.00860008
-0.0318821
0.000648016
0.017053
-0.0200014
0.0547513
-0.027387
0.0187869
0.0414032
0.0283977
-0.0286994
-0.0201064
-0.0136347
0.0154742
0.0287636
-0.0235141
-0.0127374
-0.0172172
-0.00486213
0.0321964
0.0264375
-0.0233249
-0.00901223
-0.0116141
0.0243249
-0.0193424
0.00347283
0.0177711
-0.0487586
-0.0217387
0.0503946
0.00275147
0.0133779
-0.0202051
0.00883284
-0.0331556
-0.0120184
-0.0217357
0.0377389
-0.000184549
0.00209863
-0.00735119
-0.0132954
0.0427989
0.0393131
0.0248103
-0.0343663
-0.0312674
-0.0343403
-0.0386884
-0.0219462
0.0439988
0.015885
-0.0116789
-0.0241689
0.0200109
-0.0373591
-0.017597
0.019515
0.0162655
-0.0354848
-0.0161913
-0.0381873
0.00980728
-0.029851
-0.0382687
0.026719
0.0139594
0.0362935
0.0391906
-0.00301437
0.0240774
-0.0314043
-0.0317672
-0.000513214
0.0161617
0.0206162
-0.00181092
-0.0456316
0.0235601
-0.0305429
0.0109628
-0.00697432
-0.0236379
0.00226638
0.0257813
0.0278367
-0.0083972
0.0225289
-0.00435709
0.00280411
0.0311479
-0.0424361
-0.0188181
-0.034336
0.033049
-0.0336679
-0.00304514
-0.0206941
-0.0308521
0.0013771
-0.0301182
-0.00506623
0.0387322
0.0128911
0.00842706
-0.0108945
-0.0450765
-0.00944747
0.00837489
0.0384437
-0.0108324
0.0205309
0.00313159
-0.0371155
-0.0218269
-0.0309866
0.00410444
-0.0250578
0.0361877
-0.0286122
0.000470656
0.00415535
0.0293753
-0.0328108
0.0246794
0.00697392
-0.0295554
-0.00486389
0.038514
-0.0439697
-0.0507215
-0.0265243
0.00666119
-0.00334221
0.00359455
0.0366535
-0.00673127
-0.0324461
0.0169807
0.0025944
0.0162563
0.0137787
0.029746
0.012009
0.0429518
-0.0152655
-0.046588
0.00205124
0.00483998
-0.0535738
-0.0184355
0.0263937
0.0186592
0.0213186
3.67984e-05
0.00305505
-0.0217272
-0.0447989
-0.015071
0.0195103
0.0449904
-0.0336334
0.00765484
0.00519083
-0.0147403
0.0423843
0.0284846
0.00122483
0.00391491
-0.00315625
-0.0144089
-0.0325259
-0.0310749
0.0182981
-0.0331993
0.00971488
0.0063881
0.00806557
-0.00417856
-0.0235745
0.0126322
-0.00276151
-0.0488699
-0.012741
-0.0464041
-0.0045558
-0.0386313
0.0335379
-0.0151044
0.0331436
0.0386506
0.0248247
0.024376
0.0123342
-0.00203726
-0.0482866
0.0366172
-0.00394748
0.0265263
-0.00591652
-0.0272958
-0.00341657
0.0262733
0.0296016
0.0251826
-0.0348281
-0.0484607
-0.0279214
0.0394592
-0.0484652
-0.0171688
-0.0157675
-0.0163741
-0.0262784
0.0217493
0.0451709
-0.0462332
0.0510854
0.0493765
-0.0248173
-0.000251201
0.0345637
-0.0152762
-0.00472851
0.00798611
0.0230771
-7.19874e-05
0.00558397
-0.00605726
-0.0412915
-0.0505646
-0.00334479
-0.0390672
0.0369575
0.0192523
0.0201015
-0.0105975
0.0396112
0.000374031
0.0411144
0.00405088
-0.0256422
-0.027303
-0.0354613
0.006445
-0.0090032
0.00696685
-0.046785
-0.0197744
0.033895
-0.0538431
0.00814864
-0.0365057
0.0277184
-0.0286678
-0.025137
-0.0145213
0.036729
0.00162333
-0.0294399
-7.69861e-05
-0.0484872
-0.0283615
-0.0111014
0.0546564
0.0524935
0.00451366
0.0360699
-0.0159723
-0.0119802
-0.0225133
0.00491326
-0.0417773
0.00147572
-0.0259564
0.01006
-0.0437276
0.0276268
0.0392627
-0.0148793
0.0457002
0.0434337
0.00100931
0.0444026
0.000405301
-0.0167855
-0.0058919
-0.0206387
-0.00224719
0.0395807
0.0314575
-0.0449955
0.00563406
0.0339537
-0.00220598
0.045387
0.0380003
0.0232154
0.0142185
0.00639151
-0.0144014
-0.00573391
-0.00695626
-0.0386641
-0.0255966
-0.00171356
-0.00180728
0.0429809
0.0112485
0.00636225
-0.00305435
0.0108097
-0.0347633
-0.0162156
0.0485128
0.0251122
-0.01786
0.00981834
0.00772789
-0.0172409
-0.00909283
-0.0334833
0.00541829
0.00482672
-0.0156762
-0.00863205
0.015222
0.0148397
-0.0132535
-0.0381247
0.00210247
0.00442672
-0.0355247
0.0207686
-0.0217577
0.0448352
0.0160589
-0.00294641
0.0176854
0.0213055
-0.016968
-0.0148928
-0.0468897
0.00619809
-0.0358436
-0.0321686
-0.0400295
0.0534841
0.0322835
0.00777732
0.0353166
-0.0088855
-0.0173298
-0.0517636
0.0247255
-0.0380233
0.00237808
0.0480149
-0.0161899
-0.0109074
-0.038217
-0.0383492
-0.0402613
-0.0229994
-0.0161482
-0.0259252
-0.0392658
-0.0282968
-0.0279606
0.00512126
0.00765052
-0.0245058
0.00556465
-0.0294034
0.0342471
-0.0250015
0.0268273
-0.0233896
-0.0227011
-0.0371243
0.0263996
0.0469516
0.0278657
-0.0113309
-0.0367823
0.0170847
-0.0389888
-0.0408111
-0.0181703
-0.014504
-0.0216681
0.023376
0.00178412
-0.0121418
-0.0336084
-0.0155631
-0.0187168
0.00876163
-0.0499856
0.00216192
0.0498789
-0.0432781
-0.0412454
-0.0440451
-0.0282861
0.0122882
-0.0149324
0.0353362
0.015339
0.0462674
-0.0315598
-0.0444231
-0.00271223
0.0120646
0.00652683
-0.00460507
0.0467968
0.00442214
0.026717
-0.0488815
-0.0427144
-0.0334597
-0.029809
-0.000704591
0.0455602
-0.0309933
0.0179587
-0.0125096
0.0130606
0.0136487
0.000933107
0.0209474
0.0143106
0.00017609
0.0140903
0.015995
-0.0378038
0.048804
-0.0389479
-0.00494986
-0.0348109
0.0216838
0.0074166
0.000789507
-0.0221036
0.034802
0.039084
0.0130304
-0.0320046
0.0281144
-0.0396232
-0.0236094
-0.0143008
-0.0350428
-0.023956
0.0236832
0.0116652
0.0252658
0.0107428
0.00129497
0.000147792
0.00936384
-0.04295
-0.0152319
0.01044
0.00490968
0.0201576
-0.0313255
0.0389948
-0.0315323
-0.00483575
-0.013103
0.0136543
0.010873
-0.029694
-0.0199404
-0.000140746
0.0199656
-0.0356788
-0.0129149
-0.0117526
-0.0160174
-0.0237624
-0.017971
0.0121649
0.00372692
0.00112974
-0.000853929
-0.00400597
-0.0164415
0.0291003
-0.0166244
-0.0151492
0.014243
-0.00688139
0.00218473
0.0111685
0.0138601
-0.00199588
0.0214486
0.0257696
0.0342511
0.0274204
-0.0413651
0.0282481
-0.0226923
0.035568
0.0081918
-0.0112928
-0.0109099
0.0387359
-0.0160323
-0.0111742
-0.0237928
0.0252635
-0.0140927
-0.0391128
0.008375
0.0122544
0.0283421
0.0090669
0.000410163
-0.00526032
0.0296587
-0.0454134
-0.0112835
-0.00459765
0.0038559
-0.022036
-0.022214
0.00351384
0.0491385
-0.0136337
0.0459936
-0.00117964
0.0443468
-0.0238084
-0.0276881
-0.0320093
-0.0203396
0.00964744
-0.0434998
0.031641
-0.0368104
-0.0255609
-0.00027092
0.0457868
-0.00102298
0.044571
0.0241716
-0.0162357
0.0295389
-0.00807067
0.00129222
0.0179979
-0.0153436
-0.000108284
0.0410658
0.0203541
0.0476983
-0.0206397
-0.00628684
-0.0278068
-0.0343314
-0.0256805
0.0431079
-0.0128896
0.0124547
-0.017347
-0.00455581
-0.0387629
-0.0252365
0.0172866
-0.00457589
0.042722
0.00163673
-0.0110703
0.0302725
0.00171339
-0.0364097
-0.0135393
0.0109635
-0.0245745
-0.0182898
-0.0417306
-0.00737274
-0.0319179
0.0246052
-0.0029799
0.0476164
-0.00390292
0.0159532
0.0145383
0.0321852
-0.0368773
-0.0283902
-0.000192769
0.0179967
0.0243451
-0.00878727
0.00523978
-0.0146773
-0.00468688
-0.0287667
-0.0208141
0.0187138
-0.0231763
0.0401855
-0.0109429
0.000358385
0.0150814
-0.00376457
-0.0175023
0.00140063
0.0315082
-0.0443144
0.00164785
0.00768404
0.0133075
-0.0130108
0.0303515
0.0418895
-0.00518523
-0.0277203
0.0329465
-0.0202218
-0.0252494
-0.0383763
-0.0196516
-0.019274
0.0440134
-0.0304239
-0.0142764
0.0070991
0.0312719
0.0211687
0.0190639
-0.0421285
-0.0487355
0.0294432
-0.0181236
0.0220458
-0.0274625
0.0278781
0.0381429
-0.0105332
0.0360197
-0.0364794
0.032967
-0.0130789
0.0335926
-0.0268089
-0.0251441
0.0129722
0.0207276
-0.00753172
-0.00826231
0.0323243
0.040868
0.023937
-0.013476
-0.00695197
-0.0185026
0.0217196
-0.00102279
-0.04122
