0.0538718
-0.00636624
-0.0480491
0.0494285
0.0158902
0.0368187
0.0440771
0.0441433
-0.0242162
-0.0085185
-0.0237439
-0.0157949
0.0219839
-0.0165425
-0.00892299
0.00355868
0.00579495
0.0195793
0.0315729
-0.0029816
-0.00999135
-0.0181957
0.0160566
0.0448425
-0.00318677
-0.000789984
-0.0205786
0.00237362
0.0407657
0.0277674
0.014498
-0.042354
-0.0438323
0.0126298
-0.0440922
0.0208179
-0.0395255
-0.0507031
-0.00792367
0.0275421
0.041701
0.0132306
-0.0377973
0.0325723
-0.0145998
0.00803051
0.00641093
0.0474633
-0.00241734
-0.00455099
-0.0105556
-0.0321123
-0.00419422
0.0211703
0.0162535
0.0339352
-0.000223885
0.0295163
-0.0174863
0.00471864
-0.0144199
0.000301958
0.0440725
-0.00664801
-0.0421866
-0.0381573
-0.0496367
0.0122243
0.0405921
-0.0115344
0.0107641
-0.00597928
0.0368709
0.0171561
-0.0319571
0.0297535
0.00219128
0.037157
-0.00309522
0.0427452
-0.022162
-0.0315756
-0.0102644
-0.0114556
-0.024385
-0.0137432
0.0170865
-0.0200941
0.0382378
-0.033374
0.0378261
0.0131515
0.0140497
0.0251516
-0.0209214
-0.00784286
0.0122374
0.0249836
0.0320774
-0.0320118
-0.00628153
0.0314515
0.0003768
0.00990279
0.013799
-0.0060299
0.0302961
-0.0321781
-0.0192073
-0.000779396
0.0201188
0.0202124
-0.0501177
0.0220355
0.0428179
-0.0431132
-0.0274435
0.0228106
-0.0157493
0.0184531
0.0323417
0.00441439
0.0379612
-0.0380563
-0.0431279
-0.0121407
0.0219552
-0.044694
-0.0348128
-0.0365382
0.0273298
0.00596485
0.0019626
0.017867
0.0469129
-0.0391953
0.0447306
0.0204413
0.00517697
-0.0264829
-0.0440456
-0.0415066
0.00975035
0.0247155
0.00178172
-0.0190956
-0.0190214
0.0260985
-0.0167537
0.0267329
-0.0228547
0.00566694
0.0250902
0.0395667
0.0146292
-0.0365661
-0.0284332
-0.0103412
-0.000398908
0.0161837
-0.00975369
-0.00597269
-0.0316255
-0.00795911
-0.00264081
0.00487272
-0.0100878
0.00296127
-0.0177663
-0.00337723
-0.00738478
-0.0228454
0.018539
-0.0214205
-0.0159018
0.0103086
0.0402888
0.0139913
0.0358281
0.0208933
-0.0236366
0.0489441
-0.040694
-0.0294988
0.00530785
-0.0254531
0.0185626
0.0100015
-0.0364932
0.000799384
-0.0185972
-0.0226309
0.0114856
0.0303968
-0.0199301
-0.0222013
0.00248199
0.0438494
-0.0279029
0.0343926
0.0215472
0.0508432
0.0231871
-0.0197701
0.0512117
0.00682453
0.0246683
0.00733929
0.0159192
-0.0199526
-0.0158093
0.00171109
0.0228453
-0.0291669
-0.0363432
-0.0449772
-0.0112188
-0.0257605
-0.0242537
-0.0439198
0.00515502
-0.0204698
0.0119535
-0.0100871
0.0302562
-0.00178158
-0.00607109
0.0356555
0.00751718
-0.0303157
0.0518102
0.000227705
-0.020168
-0.0283165
0.0037512
0.0459078
-0.0363567
-0.0280556
-0.00483347
0.0227755
-0.0277484
0.0324079
-0.0335801
0.0416901
-0.0320887
0.0261064
-0.00635168
0.0192224
-0.0324228
0.0093836
-0.0122994
0.034088
1.04488e-05
0.0415101
0.0137171
0.044676
-0.010098
-0.000677318
0.0498694
-0.0348065
-0.0277014
0.0281635
0.0321314
-0.0449156
-0.0502541
0.00361045
0.0452908
-0.025193
-0.0100312
0.0156302
0.0388246
-0.00559045
-0.0277101
-0.0100952
0.0024297
-0.0272521
-0.00776012
0.0336331
0.0177279
0.0398788
-0.0161371
0.0290977
-0.0326085
0.017297
-0.0208114
-0.0407786
-0.028311
0.0292774
0.0354413
-0.0230379
-0.0431012
-0.0421607
-0.0499897
0.0311224
0.0182409
-0.0167683
0.00660602
0.0149748
0.0269735
-0.0428622
-0.0260195
-0.0131172
0.0353951
0.0174589
-0.0213078
-0.0295689
-0.00356595
-0.0159972
-0.0139505
-0.0176384
-0.0033998
-0.00271254
-0.0162213
0.0495928
-0.0342192
-0.0136527
-0.00697504
0.020572
0.0210937
0.00124651
0.0442967
-0.0272463
0.0329748
-0.032741
-0.000422661
-0.0536789
0.0146782
0.0315723
0.0296182
-0.0135206
-0.0429833
0.0329563
-0.0122985
-0.00342345
0.0113589
0.0254991
0.00509233
0.0373157
0.0457973
0.034749
0.0308359
-0.0485979
0.000677315
0.0482699
-0.0452867
-0.0312981
0.0219486
-0.0150219
0.00189255
0.0522846
-0.00918595
0.0391077
0.00754012
-0.0508107
0.00569177
0.0445809
-0.00501179
0.0146117
-0.0174888
-0.00489911
-0.0225218
-0.0147599
-0.00336099
0.0210329
-0.0428735
0.0110255
-0.00420179
0.047625
-0.00680268
0.0449527
0.0115503
0.0182815
0.0174009
-0.0315468
-0.0188715
-0.00145617
0.0203976
0.0367301
-0.0188893
-0.018113
0.050158
0.0439431
0.0382077
-0.0404041
-0.0311842
-0.0347782
0.00219065
0.0110508
0.0324281
0.024686
0.0385795
0.00656557
-0.0286428
0.0415121
0.043374
-0.0129107
0.0369238
-0.00208258
-0.00908664
-0.0222342
0.0404984
-0.0103223
0.0323442
-0.0361684
0.0107589
-0.0141922
0.0108747
-0.00322229
-0.0191807
0.0533908
-0.0437812
-0.00375606
-0.00849779
0.0270153
0.0403725
-0.0148405
7.10511e-05
-0.0301798
-0.0363944
-0.00182175
0.0125424
-0.0191989
-0.0372816
0.0485161
0.0168193
-0.0335096
0.0150604
-0.0150809
0.0146968
-0.00577087
0.0240052
-0.0138651
-0.0204323
-0.0405345
0.045251
0.00442849
-0.0260482
-0.0338586
0.0148863
-0.00829518
0.0328366
0.0290846
-0.0197863
-0.0413696
-0.00218316
-0.047451
-0.00329441
0.0186055
-0.00336924
0.0380298
-0.0408568
0.0069858
0.0445159
-0.0365652
-0.0378474
0.0109245
-0.00563529
0.000677098
-0.0271064
-0.0332
0.0422006
0.0377549
0.011991
-0.000113583
0.0205884
-0.0215661
0.0276002
-0.00641133
-0.0117705
0.0414291
0.0420271
-0.0241917
-0.0397252
0.0190113
0.0104265
-0.0127709
-0.0463004
-0.033445
0.00945706
0.0170939
-0.0293066
-0.0169447
-0.0356385
-0.0158526
0.0459066
0.00287053
-0.0130671
0.00604387
0.0236346
-0.0335507
0.0232585
0.0047376
-0.0321746
-0.0191552
0.0387932
0.0228627
-0.0194575
0.0163035
0.0190509
-0.0389589
0.0310331
-0.0268582
0.00901464
-0.00910911
-0.00984601
0.0335275
-0.0210278
0.00220972
-0.024799
0.0132405
-0.0421864
-0.00332053
-0.025477
0.0319537
0.0451289
-0.0372378
0.00185169
-0.00196768
-0.0361595
-0.0509245
0.02306
0.0136552
-0.0301626
0.0152835
0.00324992
0.0324948
0.0227821
0.0189488
0.0413491
-0.0232131
-0.0387775
-0.0462908
0.0459217
-0.00890682
-0.0147833
-0.0218082
0.00425581
0.0459656
0.0249807
0.0278518
0.0283584
0.0247207
-0.00511819
-0.013825
-0.0237594
-0.0380598
-0.0282076
0.00313082
0.0459357
0.0275182
-0.0222542
0.0247715
0.00144086
0.0122437
-0.0157185
0.0044027
0.0177477
0.0136222
-0.0151442
0.000752465
0.0233201
0.0209521
0.0213623
0.0147542
0.0245365
0.0204779
0.0209143
0.0173054
-0.0426348
0.00678789
-0.0242616
0.0229571
0.0402838
-0.0525926
-0.0427627
0.0135277
0.0491598
-0.0402653
0.0259889
-0.00327978
-0.0390071
-0.0525436
0.00235893
-0.011106
0.0132499
0.0118991
-0.0348688
0.00909536
0.0180674
-0.016809
0.00450314
0.0207443
0.000856301
0.0210662
-0.0371905
-0.00164046
-0.00921401
0.0416347
0.0548374
0.029491
-0.000425864
-0.0331032
-0.0108684
0.031291
0.013445
-0.0417565
-0.0447001
-0.00912368
0.014764
0.0398551
0.00857248
0.00124163
-0.0134497
-0.00141989
-0.0488802
-0.0192535
-0.00141817
0.00521294
0.0206368
0.0487259
0.0015285
-0.00216057
-0.0264819
-0.0109725
-0.0458568
0.0330158
-0.0311006
0.0429821
-0.0380459
-0.0325082
-0.0458314
-0.0281653
-0.000434474
0.0085883
-0.000241071
-0.0194986
0.00142858
-0.045739
0.0398909
0.0490262
-0.0178262
0.0479702
0.0304222
0.0481517
-0.00774988
-0.0201933
0.0389233
-0.0414001
0.0395616
0.0372299
0.00710941
-0.0132031
-0.0321323
-0.0214183
-0.0117281
0.0121151
-0.00339124
0.0464988
-0.0408621
-0.00982337
0.0162666
0.0090024
0.0285782
0.00455342
0.0317484
-0.00777969
0.0172155
0.0119382
0.0322762
0.0158053
0.037289
-0.0459318
0.0386445
-0.0254539
-0.0304134
-0.0417412
0.00137535
0.014042
-0.035431
-0.0224215
-0.0380999
-0.019788
-0.00300449
-0.0545828
0.0334488
-0.0207278
0.0258362
0.0273939
0.00767629
0.0472907
0.00533833
-0.0130144
0.0406281
0.0231035
0.0340878
0.0073847
-0.0294395
0.0314573
0.0325721
0.0263637
0.0348508
0.00949172
0.024739
0.0289215
0.0284394
0.00859314
0.0138683
0.00209542
0.0335464
-0.02089
-0.0174941
-0.0117827
-0.0365229
0.00507928
-0.0149356
0.00117814
0.00580389
-0.00774365
-0.0140194
-0.0166433
0.0244646
-0.047067
0.0412291
-0.0176552
-0.023762
-0.0398358
-0.0296871
0.000571215
0.0141804
-0.0511824
-0.0123127
0.0200862
0.0250559
-0.00919335
0.0210167
0.0247109
0.0240022
0.025212
-0.00189198
-0.0251631
-0.0026727
-0.00695312
0.0143967
0.00712909
0.0313072
0.0180147
0.0394367
0.0396693
0.0159681
-0.0076782
0.0295654
0.0207706
0.00209742
-0.0389962
0.0255553
0.0273105
-0.0242537
0.0306516
0.00189146
0.0457207
0.0321842
0.00503917
0.00387777
-0.00189848
-0.0125868
0.0284291
0.0205632
0.033002
0.0336676
0.027665
-0.030934
0.0193915
0.028724
0.0247566
-0.0320212
-0.0321749
-0.0289011
0.0114836
-0.0334509
0.0467979
0.0119144
-0.0440641
-0.0296735
0.0136294
-0.0150346
0.0202838
0.00649916
-0.0388703
-0.00450691
0.00144131
-0.0175265
-0.031203
-0.0115564
-0.0258776
-0.0231288
-0.00943888
-0.00332708
-0.0406146
0.00848314
0.0142782
0.00987799
-0.00321937
0.00652272
-0.0277021
0.00475555
0.0330711
0.0136903
-0.0454576
0.0385751
0.032809
0.0467389
-0.0162709
0.0321843
0.0397394
-0.0094409
-0.0437166
-0.00957973
-0.0294875
0.0105378
-0.0146459
0.0504109
-0.0215827
-0.0170816
-0.00499794
-0.0158376
-0.0250773
0.0202863
0.0483984
0.0198336
-0.0262048
0.0421041
0.0120253
-0.0457824
0.0525393
0.0169595
0.0299936
-0.0460431
0.00676849
0.0543101
0.0511134
0.0373729
0.00744959
-0.0271479
0.0270026
-0.00652595
0.0363974
0.0111769
0.0269048
-0.0395189
0.0372363
-0.0100966
0.00439383
-0.0040826
0.0451282
0.0319729
-0.0290881
0.0192675
0.0261776
-0.0394655
-0.00563947
0.0268266
-0.0133191
0.0158603
-0.0337347
0.00674635
0.0417647
0.0423594
-0.0341442
0.0388832
0.0271093
0.00539513
0.0174078
-0.00820442
-0.0105187
-0.0128745
0.00737441
0.0441439
0.0058739
-0.0297304
-0.0317946
0.0300377
0.000614597
-0.014608
0.0068677
-0.0146606
0.0315943
-0.0328514
0.00500827
-0.0232083
0.00692185
0.0354518
0.00737116
-0.0476204
-0.0251042
-0.0454696
0.000695764
0.025667
-0.0245386
-0.0438693
-0.0375806
-0.00679485
0.0210476
0.0176123
-0.00466913
0.0410228
-0.0150316
-0.0304499
-0.00508169
-0.0134258
-0.029587
0.0398456
-0.00492594
0.0268326
0.0158158
-0.0187652
-0.0260216
0.0303183
-0.0407948
0.0184205
-0.0124703
-0.0165955
0.00876359
0.0191186
-0.0225521
0.0299718
-0.0397537
0.0371351
-0.000896172
-0.00375281
-0.0434439
0.0148177
-0.00387272
-0.0024036
0.0333078
0.0403467
-0.0249273
0.0440393
-0.013445
0.0358205
0.00665256
-0.026558
0.0456056
-0.00179854
0.0458811
0.00408708
-0.0287582
0.0322865
-0.0122495
-0.00284731
0.0145237
0.0152052
0.00687679
-0.00378627
-0.0294257
0.0409527
0.0422139
0.0475148
0.0145195
-0.00358514
0.0356086
0.0427001
-0.032787
-0.0459206
-0.00646313
-0.0438674
-0.0133728
-0.0398161
-0.00469797
0.00103924
0.0443213
0.0271834
0.0264107
-0.0102335
0.0233007
0.00924491
0.0407595
-0.0258832
0.00929
0.00637813
-0.00924874
0.00214727
-0.0348176
-0.00712904
-0.00534252
0.00893586
0.00773257
-0.00841643
0.0485599
0.0159725
0.0046576
-0.0352812
-0.00882348
0.0188291
-0.0292419
-0.0143724
0.0165951
-0.000628024
0.0249788
-0.00730447
0.0283289
-0.0124441
0.00660078
0.00856204
0.0113319
0.017001
0.0248961
0.0228864
0.00554699
-0.0435716
0.0115051
0.00719895
0.0151573
0.0195775
-0.0120614
0.0109352
-0.0220143
-0.0502642
0.0375695
0.000197294
0.0400369
-0.0453721
0.0102062
-0.0262213
-0.000211116
-0.0315366
-0.042421
0.00207354
0.0168413
-0.00969602
0.0379029
-0.0263316
-0.0323798
-0.03237
0.0205139
0.0281385
-0.0104581
-0.00890326
0.0335265
-0.0147561
-0.0326036
0.0320905
0.0166281
0.0343475
-0.0391564
-0.0242501
-0.0308632
-0.0303685
0.0361113
-0.0391015
-0.00728283
-0.0246647
-0.0361062
-0.0226242
0.0153758
-0.00656303
-0.0116112
0.0375461
-0.0380714
-0.0448855
0.0351102
0.00478875
0.014064
0.0189328
0.0389295
0.0120462
0.0173801
0.0264107
0.0253442
-0.00247578
-0.0236459
-0.0127598
-0.0487813
0.00504346
0.00233695
0.0234969
0.00320151
-0.0131043
0.0235979
-0.00343121
-0.00131436
0.00194154
0.00461343
0.0029684
-0.00758526
-0.0131096
-0.0175315
-0.0166583
0.0125028
-0.0182785
-0.0196542
0.0336752
-0.0212179
-0.0170092
0.0101801
0.0149697
-0.038906
0.0371659
0.0345832
0.0444354
-0.0144021
-0.0452682
-0.000479837
-0.0422296
-0.0116943
0.00692357
-0.0220085
-0.0428738
0.0208987
-0.0211832
-0.0451019
0.0488342
0.0188072
0.00537413
0.00518348
-0.018263
-0.0467579
0.0155645
0.0127697
-0.0361696
-0.0310457
0.0262056
0.0215045
0.00614053
0.0291312
-0.0467244
0.0208605
0.0033062
0.0357133
-0.00395258
-0.00704568
-0.0114315
0.0353188
-0.0378931
-0.0151491
0.0150551
0.00307758
-0.00243272
-0.00955498
-0.0170541
-0.0163039
0.0165515
-0.0322756
0.0217984
0.0138591
-0.000700624
0.0280913
0.0098653
0.0253557
0.0345304
-0.0175999
-0.0470011
0.0167644
0.0363353
-0.0433552
-0.0136814
0.0341128
0.0422281
-0.00227197
-0.0276978
0.0218151
0.0156963
-0.0384752
0.0164856
-0.00320476
0.00780187
-0.0493308
0.00687594
-0.0396194
0.00224855
-0.0295086
-0.0260323
0.0478021
0.0424986
-0.0508585
0.0338157
-0.0217302
-0.0322661
-0.00917454
0.0161374
-0.0348266
0.0193718
0.0272283
-0.0301363
0.0367121
0.027676
0.00423373
-0.0193127
0.0275642
0.0435414
0.0328814
-0.0173308
-0.0179951
0.0287438
0.0367088
0.0257186
-0.0287632
-0.0219034
0.0342878
-0.0140674
0.0273895
-0.0403743
-0.00655571
-0.014871
0.0420785
-0.00111622
-0.0116947
0.023138
0.0378343
-0.0455797
0.0306831
0.0160672
0.00455084
-0.0505997
-0.0278683
-0.0312893
-0.00457186
0.0227431
0.000103088
0.0404149
-0.0090862
0.0220671
0.0286267
-0.0196198
-0.0402678
-0.0338114
0.0514937
0.0111138
0.0187837
-0.0129147
0.0220735
-0.0438986
0.0143723
0.0522323
0.0108111
0.0394311
-0.0389701
0.00122107
0.000379275
-0.0318056
-0.00850044
0.00350227
0.040082
-0.00968698
-0.0212537
0.0087808
0.0252405
0.0124853
-0.0470669
-0.0315222
-0.00562875
-0.00490601
0.0374257
-0.0453883
0.000183038
-0.00340305
-0.0202715
-0.022844
-0.0122122
-0.0367675
-0.00746176
0.00770966
0.00330902
-0.0193614
0.0295122
0.0100874
0.0179592
0.0157286
0.0152579
0.0344351
0.0328013
0.00221724
-0.0380691
-0.0188135
-0.0126962
-0.00306414
-0.015528
-0.0258624
-0.0442687
-0.00243923
-0.0400867
-0.032321
0.0478816
-0.0234199
0.0196963
-0.00942532
-0.0255047
-0.0342966
0.027527
-0.0425336
-0.00994888
0.0147496
0.00833979
0.00704619
-0.00534485
0.0134543
0.0205527
0.0309743
0.0124201
-0.00702622
-0.0169592
0.0232327
-0.0080928
-0.0334245
-0.016831
-0.0218616
-0.0336879
0.0152704
0.0400796
0.0210245
-0.0145553
-0.00486662
0.000877658
-0.0344093
0.0214121
-0.0504675
-0.0367591
0.042278
0.0310172
0.00861477
-0.0306285
0.0112882
0.037788
-0.0482962
-0.0136727
-0.0141855
0.0133382
0.011874
-0.0453215
-0.00884268
0.00844336
0.0504811
0.0124388
-0.0123642
-0.020161
-0.0187611
-0.0412527
0.0100995
-0.0296566
-0.0154268
-0.0393276
0.0197617
-0.016798
-0.0380888
-0.00350528
-0.0172893
-0.0166326
-0.0181214
0.0272195
0.00797423
0.0402312
-0.00552096
0.0204423
-0.000745893
0.0500025
-0.00777858
0.0280889
-0.0335238
-0.0252041
0.0299745
0.04112
0.0277686
-0.00172411
-0.0191631
-0.00907024
0.0400943
0.0151345
-0.0123197
-0.0155871
-0.0333504
0.0482004
0.00221894
0.019416
-0.0373955
0.0259539
-0.0217745
0.0300178
-0.0256907
0.0124319
0.0212406
0.0454619
0.0250854
-0.0271204
0.0183853
0.0403324
0.00124831
-0.0159816
0.0249521
-0.0366207
-0.00337152
-0.0499999
0.00430401
0.00382475
0.00961425
0.0193614
-0.0319926
0.0344952
-0.00067069
-0.031205
0.015892
0.0202429
0.016085
-0.0266514
-0.0273862
-0.0152754
0.0410917
-0.0215117
-0.0452548
0.00668426
-0.0465676
-0.0173018
-0.0410712
0.0404864
-0.0121419
-0.00897694
-0.0192162
-0.03358
-0.0483
0.031056
-0.0256862
0.0305675
-0.0512111
-0.0082943
-0.0256136
-0.0255178
0.00111794
0.0242553
-0.0459821
-0.0329611
-0.0048838
-0.00633425
-0.0104497
0.0180463
0.0375777
0.042147
0.0382738
-0.0234182
-0.00542184
-0.0264921
0.0145874
-0.0258871
-0.00794566
-0.0399832
0.024923
-0.0395959
-0.0423676
-0.0461863
0.0139809
0.0318166
-0.0150679
-0.0523786
0.0276396
0.0201345
-0.0371978
0.0122537
-0.040871
0.0146111
0.0237057
0.0141255
0.0110699
-0.0113157
0.0236535
0.0391026
0.0327193
0.0460471
-0.0268441
-0.0121325
-0.023045
-0.0318451
-0.0239297
0.0236249
-0.0327683
0.0121374
0.0125045
-0.013106
0.0288271
0.0166901
0.00582347
-0.00388926
0.0307121
-0.0413546
-0.0504805
-0.0444192
-0.013567
-0.00568136
0.0125343
0.0160861
0.0357445
0.00512134
-0.000514317
0.00929958
-0.0343579
0.0166392
0.0263679
0.0479859
-0.0149916
0.0139001
0.00354667
0.0124033
0.0224134
0.0255549
0.00878533
-0.0148609
0.0289253
-0.0291928
-0.0284635
-0.0420549
-0.0375127
-0.0202163
0.0368979
-0.0191474
-0.00344269
-0.0360705
0.00157977
0.0169948
0.045071
-0.0170307
0.053702
0.000835141
0.043847
0.012137
0.00640021
-0.0190654
0.00243554
0.039288
-0.0261329
-0.0259816
-0.0114675
0.0276291
0.0428739
0.0380556
-0.00650646
-0.0160836
-0.00607054
-0.00507336
-0.0163912
0.00146696
0.0204222
0.0021886
0.0100063
-0.02893
0.0213484
0.015217
0.0247245
-0.00511332
0.00863991
-0.032989
0.0227651
-0.00838098
0.00992337
-0.020102
-0.0255477
-0.0115994
0.0314395
0.0121985
0.0135887
-0.00155003
-0.00439608
-0.048307
0.019327
-0.00157247
0.00932402
0.0180117
-0.0174834
0.0448631
0.0479199
0.0255195
-0.0283197
-0.0122456
0.0406354
0.0431021
-0.0430422
0.00207717
0.0391037
0.024844
-0.0273555
-0.0214702
-0.0167878
-0.00467286
-0.00794075
0.0308916
-0.00397265
0.00371216
0.0196013
0.0123484
0.0309734
0.0124467
0.0265733
0.00966961
-0.0231629
-0.00497841
0.0179919
-0.0473021
-0.0215176
0.0399911
0.0228961
0.00950684
0.0199116
-0.00819276
-0.0178714
-0.0371169
0.0107289
0.00522265
-0.0320145
-0.00774251
-0.0172618
-0.0044518
0.0156241
-0.0407125
0.0311823
0.016579
0.0156111
-0.0410307
-0.00829944
-0.0363738
-0.0085789
0.027053
0.0117769
0.00984072
0.0154567
-0.0116634
0.0180338
0.00930817
0.00527646
0.0321337
-0.00613078
0.0235894
0.026601
-0.0450899
0.00199615
0.00510468
-0.00663202
-0.00139227
0.0168548
-0.00623934
0.0190656
0.00123778
-0.031963
0.000846729
-0.00270988
0.0241723
-0.0100915
0.0457864
-0.00979561
0.00311164
-0.0451972
0.0149204
-0.0275433
-0.0297189
-0.00189239
0.0447412
0.0194824
-0.0221265
0.0327188
0.0219877
-0.0143033
-0.0296692
0.023386
0.0290736
-0.0375169
0.00893759
0.0129546
0.028102
0.00792139
-0.0412798
0.0261764
-0.00494999
-0.00892044
-0.0405252
-0.0444611
-0.0482116
0.0291712
-0.0285316
0.00222795
-0.00470858
-0.0183902
0.0251878
-0.0130322
0.0463575
0.00458188
-0.0345376
-0.0239958
0.00330205
-0.00919119
-0.0365615
0.0395671
-0.0178849
0.0133384
-0.0297802
-0.00155378
0.0065998
