-0.11669
-0.749449
0.272738
-0.611753
-0.024388
-0.14627
-0.0921261
-0.111621
0.0434923
-0.0268929
0.367323
-0.300879
0.119612
0.101645
-0.312993
-0.804805
0.414861
-0.448411
0.813918
-0.677418
0.024002
-0.713481
0.536895
0.166355
0.701994
-0.313655
-0.394345
-0.855707
1.04106
-0.815673
-1.06356
-0.667632
-0.740499
-0.592677
-0.185358
-0.732638
0.334794
0.220471
0.640406
0.656254
0.290762
-0.61333
0.0483874
-0.384281
-0.525692
0.565722
-0.408545
-0.726702
-0.223207
-0.378199
0.182352
-0.435866
-0.695097
-0.437734
-0.520835
0.229689
-0.857194
-0.285985
-0.764857
0.166206
-0.25383
-0.716463
-0.48008
-0.499207
-0.0981112
-0.380741
0.174601
0.0266874
-0.0807719
-0.908073
-0.00760012
-0.267286
0.270171
0.513059
1.19523
0.919435
-1.16101
0.249164
-0.412312
-0.481516
-0.150865
0.442735
0.101061
0.85355
0.0362208
-0.803187
0.859558
-0.18289
-0.502635
-0.497406
0.275221
0.111623
0.426981
-1.0358
-0.218016
0.120507
0.719737
0.24283
-0.364844
-0.348626
-0.10926
0.388806
0.299847
-1.04723
-0.11943
0.000131967
-0.0330393
-0.377243
-0.674157
-0.306587
0.487116
-0.721892
0.419375
0.0427963
-0.488221
1.20529
-0.331766
0.725525
0.110445
0.860818
-1.16367
-0.629345
0.742309
-0.637003
0.562322
-0.444
0.665451
0.246577
0.598538
0.560889
0.278748
0.222539
-0.744924
-0.0717894
0.632961
0.718647
0.113957
-0.0346445
-0.0808838
0.274673
0.0295506
-0.280139
-0.693004
0.27248
0.794594
0.804083
-0.229625
0.669867
-0.693982
0.706213
0.70785
-0.758902
0.0714677
0.893054
-0.71752
-0.401605
0.784715
0.29633
0.181517
0.380905
-0.224716
-0.433131
-0.431383
0.489988
0.591616
0.26444
0.629088
0.357235
0.891354
-0.20166
-0.563005
-0.587905
-0.106993
-0.624291
-0.663547
-0.492401
0.785439
-0.411949
0.3564
-0.789174
0.853855
-0.0132121
-0.708136
0.184368
-0.531302
0.301425
-0.778421
0.307712
0.573034
0.49091
0.371695
0.0445092
-0.0917423
0.00738379
-1.03219
0.805838
-0.965247
0.785655
0.548588
-0.313317
-0.606969
-0.513782
0.375314
0.0762099
-0.0387238
0.599266
-0.396341
0.22695
-0.0994144
0.259154
0.790147
-0.282401
0.406987
-0.26063
1.21044
-0.480067
0.653718
-0.15208
0.0828811
0.517072
0.442857
-0.80053
-0.299196
-0.907367
-0.235757
-0.252654
0.276577
0.315991
-0.371183
0.897934
-0.217565
-0.375053
0.203324
-1.14017
0.11274
0.23174
-0.7447
-0.0161997
-0.440299
-0.0104103
-0.50241
-0.507044
-0.63051
0.424308
-0.984689
0.535816
-0.0720938
-0.388334
0.0503775
0.229596
-0.01285
-0.228407
-0.198559
-0.134876
0.981518
-0.3854
-0.0197657
-0.0530174
-0.127055
0.923829
-0.499598
-0.108715
0.696928
-0.19905
-0.103329
-0.558345
-0.171482
-0.401109
0.0359234
0.394784
0.828961
0.569214
0.614432
0.831641
-0.410853
-0.295226
0.703895
-1.02573
0.156218
0.78073
-0.157739
-0.326842
-0.617673
-0.695049
-0.277265
0.386243
0.355321
0.789509
-0.101617
0.728297
-0.319087
-0.908382
0.340458
-0.334507
-0.730005
0.884259
-0.360603
-1.15897
0.77357
-0.846151
-1.21167
0.520316
-0.410387
-0.277511
-0.0422757
-0.354366
-0.0692231
-0.424692
0.508278
0.627112
-0.667271
0.740838
0.955761
0.150492
0.191382
-0.0990695
-0.115841
-0.799724
0.306537
0.413989
0.0246938
-0.398507
0.507038
-0.886619
-0.458924
0.69367
-0.542808
-0.166932
-0.126416
0.57851
0.261924
-0.739801
0.568895
-0.0940512
-0.612697
0.345505
-0.418806
0.509895
0.322953
0.429475
-0.212991
-0.875699
0.156226
-0.272922
0.752227
0.769389
-0.834583
1.01418
-0.174728
-0.438652
-0.785767
-0.0018158
0.584547
-0.270362
0.0145541
-0.435178
-0.362964
0.788854
-0.603479
0.57
-0.787818
0.382394
-0.78215
-0.15659
0.454335
-0.272368
0.504133
-0.113555
-0.684797
0.0912173
-0.418004
0.752768
0.67786
0.0987814
-0.0366321
0.43548
-0.0429221
-0.113005
0.131132
-0.257331
0.323918
0.522348
1.04204
-0.996441
-0.00123497
-0.185369
-0.910115
-1.12146
0.152377
0.0367428
0.19357
0.674489
-0.642568
-0.408758
-0.0592427
-0.107506
-0.436913
1.10357
0.362549
-0.246022
-0.602511
0.286137
-0.0784445
-0.257019
0.60341
-0.83248
0.673957
0.0379859
0.385309
0.514477
0.701335
0.915636
0.300694
-0.337091
0.0100221
-0.357585
0.377113
0.547678
-0.0459148
-0.67857
-0.362186
0.515983
0.634636
-0.249782
0.0972134
0.528378
0.0564417
0.433281
0.084821
0.643302
-0.636242
-0.622346
0.0626377
-0.567763
-0.544708
-0.390299
-0.408553
0.681218
0.287552
-0.130176
-0.0284734
0.776146
-0.635438
0.512026
-0.489522
0.183267
-0.496043
-0.286811
-0.354088
-0.064977
0.719663
-1.09141
0.372144
0.527699
0.457779
0.029706
0.446903
-0.961668
-0.44797
0.609668
-0.569602
0.7959
-0.846618
0.0916766
-0.618809
0.672726
0.818621
0.499508
-0.496815
-1.04444
-0.528647
0.269267
0.489199
0.257231
0.0162242
0.178872
0.0827635
1.11594
-0.760805
0.640811
0.145262
-0.106121
0.223783
0.38655
-0.831943
0.285133
-0.435043
0.386271
0.771831
-0.392132
0.355112
-0.0614545
-0.804055
-0.684244
0.720063
0.563704
0.695346
-0.330587
0.759231
0.344724
0.320878
-0.282628
-0.176389
0.677385
0.355464
-0.459143
0.750115
-0.29833
0.131077
1.19675
0.215603
-0.253171
0.426431
0.554489
0.200557
0.768688
0.159617
0.474342
-0.15414
-0.348488
0.906902
0.647146
0.88727
-0.600454
-0.802559
-1.06017
0.551415
-0.874766
-0.423305
-1.0039
0.208477
-0.460303
-0.322733
0.298617
-0.890207
0.343112
0.191058
0.0267477
0.0896739
0.160843
1.04055
-0.148186
-0.171494
0.586852
1.1283
1.20666
-1.36669
-0.049743
0.840775
0.532007
-0.101755
-0.55247
0.650858
0.196085
1.18652
0.767305
0.340093
1.14179
-0.0717608
0.211007
-0.291764
-0.447888
0.60806
0.447677
-0.484736
-0.805031
-0.318943
0.370037
0.257832
0.359928
-0.553741
0.22516
0.636748
-0.250617
-0.0991897
0.751539
0.0128796
-0.168128
-0.212241
-0.47521
-0.0573638
0.900769
0.101103
0.565031
0.430065
0.205648
-0.216132
0.319726
0.985975
0.885025
-0.269212
0.858844
-0.413376
0.356035
-1.11403
0.0729711
0.498325
-0.309689
-0.230633
0.856076
-0.493377
0.0114279
0.660592
-1.0275
-0.957759
-0.649775
0.185081
-0.861425
-0.626872
-0.117474
-0.369986
0.0323829
0.0883827
-0.574044
-0.777582
-0.302507
0.740399
0.298541
-0.439625
-0.40794
0.683508
0.274574
0.480705
-0.0148006
-0.107099
0.149188
-0.805947
0.177715
-0.158301
-0.746739
-0.707638
0.337489
0.298553
0.535652
0.483907
0.0724528
-0.131315
-1.27847
0.693918
-0.660582
-0.185141
-0.465387
-0.118472
-0.453696
0.366596
-0.855629
-0.574054
1.02721
-0.166565
-0.16638
0.641322
0.714164
-0.855299
0.679041
1.08751
-0.0361197
0.308337
0.0212142
0.687037
1.06192
0.418768
0.00474198
0.0603437
0.583111
-0.422607
-0.64432
0.203971
-1.10277
0.0542601
0.401985
-0.426782
-0.0522072
-0.428236
0.376449
-0.300568
-0.570954
0.814997
0.730221
-0.0763359
0.525813
0.771883
-1.05253
0.736803
0.582995
-0.223332
-0.28363
0.479216
-0.394673
0.490532
-0.729062
-0.748452
-0.748229
0.718277
0.457555
-0.275923
0.498757
-1.14638
-0.290557
0.418629
0.403442
-0.453688
0.49615
0.97911
0.767467
-0.729604
-0.638333
-0.282218
-0.741539
-0.339356
-0.100765
0.354023
0.853412
0.27365
0.527687
0.370885
0.0984766
0.663233
1.00819
-0.536462
-0.321115
-0.21332
0.0538381
0.918895
-0.798977
0.480454
0.709255
-0.0386419
0.511421
0.845247
-0.0674832
-0.106149
-1.05255
-0.0506387
0.119826
0.094219
-0.356578
0.275037
1.03429
-0.477909
0.30367
0.215877
0.168054
0.125248
-0.380727
-0.321638
-0.268004
0.789049
0.15901
-0.343297
-0.376761
0.182499
0.0299531
-0.253255
0.332872
-0.868321
-0.810226
0.676567
0.944805
0.994316
-0.117235
-0.11321
-0.257039
0.265694
-0.27973
-0.165988
0.0318891
-0.527783
-1.30212
0.107526
0.155857
-0.195743
-0.822109
-0.166633
0.224201
0.140764
-0.0703351
0.0845278
0.0813378
-0.255899
-0.850398
-0.570503
-0.794139
0.0320897
-0.422901
-0.895512
-0.568611
-0.0569859
0.0845025
0.215183
-0.691126
-0.401083
0.730788
1.01508
-0.630733
0.901675
0.414822
-0.0186188
0.121081
-0.0943965
0.201321
0.0169754
-0.839986
0.711093
0.748162
1.13519
0.763563
0.362031
0.49594
-0.283581
-0.203682
0.624028
-0.0475924
0.410448
-0.57974
-0.395744
-0.394215
-0.0188965
-0.027027
-0.313638
0.838347
0.767811
-0.223022
0.739729
-0.680978
-0.95696
-0.184567
-0.478073
0.0988867
1.04382
-0.0761738
-0.200001
0.604753
0.446709
0.577138
0.95388
0.799357
-0.683076
-0.0292922
-0.360569
1.11335
-0.423471
-0.321612
-0.388191
-0.153377
0.870567
0.42546
0.158331
0.482041
0.258192
-0.480302
-0.0911182
0.327047
0.882739
-0.578424
0.677461
-0.429143
0.830108
0.317988
-0.661794
-0.647746
0.15905
1.2513
0.385255
-0.428221
0.00210524
0.618353
0.578277
0.488348
0.122103
0.485992
0.662771
-0.60689
-0.277843
0.514128
0.220093
-0.026649
-0.377242
0.661046
-0.182212
-0.626874
-0.764134
1.18407
0.0268156
-0.0937813
-0.809279
0.275171
-0.672737
0.389339
-0.307513
0.113016
0.482051
0.0349277
0.985249
-0.426837
0.428005
0.0783875
-0.360491
-0.419152
-0.868585
-0.67974
-0.898208
-0.928397
0.0323189
-0.918954
-0.666125
0.645364
-0.562812
0.628319
-0.568644
-0.531324
-0.766474
1.173
-0.47535
0.266371
0.347259
0.520835
0.33132
-0.886898
0.106422
-0.685952
-0.753546
0.781091
0.893695
0.0502871
-0.930756
0.0845158
-0.112096
0.00637333
-0.216977
-0.57985
0.569732
0.477193
0.779975
0.992073
-0.0568469
0.479493
0.253914
0.0451847
1.07468
-0.327392
-0.670662
0.4766
-0.477902
0.612905
-0.00305738
0.411777
-0.253125
0.249404
-0.832905
-0.0963208
0.201984
-0.417399
-0.559788
0.822096
0.591771
-0.408787
-0.246169
-0.4982
0.877979
-0.312943
-0.244567
0.63967
0.651241
-0.674234
-0.236539
0.0148123
-0.682258
-0.475389
0.0931539
0.0293597
-0.0518645
0.631237
-0.0113092
0.759996
1.10669
0.538156
0.0764257
1.02008
-0.235
0.721469
-0.00350223
-0.0474102
-1.1594
-0.606772
-0.200453
-0.637326
0.307522
0.0467504
0.595631
-0.489808
0.835408
0.165437
0.511892
0.146143
0.675379
-0.636375
0.684226
-0.742737
-0.609564
0.99395
-0.0507429
-0.429055
-0.215115
0.667117
1.00721
0.450637
0.0364461
0.570092
0.473403
0.018486
0.269109
-0.214966
-0.329058
0.17703
-0.769225
0.121423
-0.516462
-0.753322
-0.903909
0.294061
-0.335123
0.635811
0.524802
-0.306154
-0.774449
-0.957002
-0.225996
-1.13255
0.643728
1.09444
-0.472889
0.519987
-0.44115
0.0521658
-0.235226
0.325697
0.442568
0.695486
-0.104766
-0.0544823
-0.455709
-0.16996
0.467607
0.315769
0.158613
0.127865
-0.577729
-0.226838
1.17258
-0.177944
-0.0277985
-0.637977
-0.556718
-0.725167
-1.10919
0.713545
0.317559
-0.831328
0.543701
0.0581114
0.674478
0.74615
0.12128
-0.351639
-0.0308134
-0.941809
0.186338
-0.0502903
-0.0263825
-0.324461
-0.832226
0.120138
0.0661998
0.649258
-0.381854
-0.349994
-0.591588
-0.335252
-1.17373
0.796678
-0.0986974
-0.200485
-0.456394
-0.306345
-0.267955
-0.0745901
0.126318
-0.00442413
-0.592526
0.675276
0.382008
0.432053
-0.836842
0.641497
0.686431
-0.694408
0.623544
-0.907361
0.110701
-0.483278
-0.865608
-0.273665
-0.277607
0.496906
0.226432
-0.878023
0.0130846
0.953363
0.0224919
-0.0759609
-0.354884
-0.86934
0.972615
-0.936795
-0.118843
-0.157832
-0.950346
0.725901
-0.303885
-0.0522836
0.236422
-0.843608
0.436944
-0.987822
0.625959
0.0755952
-0.200037
0.029683
0.0459446
0.465244
0.586783
0.509133
-0.170921
0.451608
-0.578202
-0.388133
-0.135277
0.685765
-0.741492
0.0505884
-0.202907
0.494842
0.30233
0.14732
0.278042
0.51277
0.0858737
-0.167317
0.35993
-0.433102
0.546292
0.999925
0.944605
-0.364256
-1.18376
0.136526
0.221849
0.903143
0.585133
0.755142
-0.296305
-0.0832665
-0.762857
0.749956
0.635228
0.456817
0.426962
0.049551
0.738447
-0.918653
0.0187725
-0.637268
0.435885
0.535363
1.13782
-0.754507
0.0758261
0.414407
-0.794117
0.080597
-0.236098
0.00170704
0.847501
0.773075
-0.392568
0.362267
-0.518234
-0.0743879
-0.185154
1.05912
-0.992543
0.623193
0.571309
-0.354863
-1.04165
-0.0571936
-1.05235
-0.619119
-0.723118
0.613627
0.687777
-0.240701
-0.155241
0.96977
0.392437
-0.668438
-0.273815
0.0321647
-0.235514
0.686222
-0.57849
0.667543
-0.586699
0.96096
0.203114
-0.716677
0.153636
-0.0884473
-0.080999
0.664761
-0.780052
-0.924295
0.595503
0.931757
0.942433
-0.0484482
0.103569
-0.404737
-0.597461
0.433649
1.02957
0.617801
-0.0655643
0.490378
0.629309
0.895386
-1.08136
0.656901
-0.687392
-0.186363
-0.533246
-0.0360605
0.324372
0.0465538
-0.773686
0.486413
0.684702
0.0530774
-0.767617
-0.439655
-0.422866
1.14766
0.318286
-0.0432962
0.699269
-0.722392
0.651394
-0.417784
0.940169
0.0421844
-0.88579
-0.195328
-0.426482
-0.0709538
0.0275992
0.865339
0.0150318
0.79755
-0.229782
-0.202446
0.603338
-0.605737
-0.722983
-0.106449
0.934987
-0.102322
-0.188289
-0.782296
1.11339
-0.564497
0.472022
0.164161
-0.637382
0.866944
0.393794
-0.0614702
-0.800077
0.209017
0.762546
-1.30568
-0.32526
-0.490624
-0.930948
-0.189716
0.860145
-1.12137
0.567989
-0.143696
0.839183
0.707625
-0.276213
0.00370669
0.230552
1.27188
-0.328836
0.359759
0.884765
0.765435
0.791321
1.16802
1.06391
-0.774956
-1.37619
-0.177546
-0.23868
-0.876348
-0.197592
-0.310807
-0.154008
0.829964
-0.876509
0.0554176
0.68441
-0.0903962
1.15535
-0.0746733
-0.516044
0.515428
-0.495354
-0.222463
-0.138276
-0.164199
0.0416637
0.849793
-0.27332
0.0719276
-0.273917
-1.14758
-0.217802
0.482772
-0.275363
0.732765
0.911109
0.771091
0.165737
-0.249715
-0.421427
0.163069
0.216084
0.536572
-0.0320295
-0.171352
-0.713475
-0.486853
0.405677
-0.710385
0.920326
-0.90048
0.460533
-0.212737
-0.617594
0.723295
0.491433
-0.108323
-0.562572
0.19523
-0.500623
-0.679367
0.0562535
-0.0914514
0.918683
0.0460167
-0.171055
0.541605
0.0253739
0.570004
-0.577297
-0.294508
-0.604884
0.127932
0.574067
-0.125471
0.381347
-0.534485
-0.596168
1.19074
-0.43093
0.075885
-0.613929
0.321728
-0.505678
0.399519
-0.0231349
0.20416
-0.408435
-1.0178
1.07362
-0.695682
0.867013
0.847509
-0.323364
-0.388327
-0.477302
0.992973
0.0187979
-0.182943
-0.412382
0.95647
0.181862
0.29207
-0.958376
-0.0288466
0.619693
-0.81771
0.730496
0.031324
0.177392
0.631509
-0.457481
1.41216
-0.48886
0.557963
0.0344849
-0.513267
-0.572585
0.197609
0.587384
-0.410908
-0.479034
-0.0674506
-0.36848
0.169464
0.867215
-1.22619
0.240047
-0.234703
0.740842
-0.569922
-0.884514
0.12157
-0.144147
0.314188
-0.0411319
-0.749668
-0.734916
-0.36651
0.875158
0.212345
0.805753
-0.0470809
0.210613
0.370918
-0.207062
-0.0663361
-1.16868
0.606522
-0.487031
0.678758
-1.53512
-0.523194
0.678569
0.0316753
-0.753472
0.0255569
0.684835
0.418859
0.951575
0.392952
0.0378974
0.945021
-0.742923
-0.224961
0.490453
-0.350236
0.205569
0.607307
0.565059
0.952585
0.492945
-0.469017
-0.677477
-0.324547
0.393841
0.479884
-0.0878631
0.61191
-0.522941
0.73591
0.265659
0.458676
0.0158346
-0.519885
-0.52388
0.176531
-0.986073
-0.211059
-0.920212
-0.180124
-0.228619
-0.200257
0.749532
0.968479
-0.671785
-0.493967
-0.419148
0.575063
0.542348
-0.855038
0.666793
0.381474
-0.29115
0.797739
-0.408317
-0.387582
-0.114184
0.312888
0.382384
0.0150124
0.148325
0.827203
-0.292626
0.00408707
0.407509
0.563001
-0.570277
-0.360926
0.348326
-0.553335
0.132804
-0.396108
0.212901
-0.271106
-0.17778
-0.501427
0.848158
-0.928485
0.371177
-0.877193
0.0273863
-0.0269719
1.2426
0.723505
-0.962005
-0.824088
0.0312104
0.292496
-0.325438
0.25871
0.813069
1.19266
0.417304
0.683256
-0.438774
1.17624
-0.218629
0.719024
0.0586745
-0.681829
-0.617694
-0.0400775
0.398328
-0.513623
-0.0732417
-0.484888
0.389298
0.350424
0.459123
-0.0798544
0.389495
-0.461455
-0.897247
0.105328
-0.147158
0.676491
-0.214299
0.249535
-0.0832336
-0.301972
-0.678949
-0.431849
-0.637657
-0.902494
-0.266898
0.984958
-0.80784
-0.330517
0.0276743
0.297052
-0.549143
-0.624224
0.331938
-0.83484
-0.919318
-0.177115
0.503994
0.498535
0.208034
0.169193
-1.2205
1.00257
0.45549
-0.296843
0.154551
0.00154281
0.38277
0.649888
-0.246789
-0.696683
-1.05496
-0.17132
-0.308786
-1.16142
-0.244776
0.558472
-0.758783
0.154947
0.612612
-0.233302
-0.0507809
0.450727
-0.0235166
-0.18952
0.346307
0.343713
0.660601
-0.879749
0.651396
0.568149
-0.547896
-1.02926
-0.280889
-0.517228
0.635589
-0.488345
-0.141733
0.00491317
0.0998422
0.160917
-0.199406
0.0517825
-0.216986
-0.557872
-0.449118
-0.986878
0.782029
0.199688
-0.773611
0.921924
0.0826841
0.457966
0.130498
0.356725
0.20976
-0.397624
0.143784
-0.272438
-0.899414
0.0572573
0.205018
0.718306
0.750749
-0.117714
-0.366689
-0.0409807
0.560008
0.214928
-0.299952
0.334496
-0.377857
-0.0931191
-0.358477
0.256434
-0.0689808
0.170882
-0.170882
-0.504135
0.77864
1.1495
0.278591
-0.658803
-0.29297
-0.580916
-0.507191
0.16764
-0.480639
-0.278013
-0.363677
-1.32865
-0.0798787
1.86217
