0.0242619
-0.0481045
0.0219344
-0.0107686
0.0328993
0.0124893
-0.00365114
-0.02284
0.0182281
0.0316616
0.0290157
-0.0339709
0.0508686
-0.00251962
-0.0329356
-0.0379483
-0.0441475
-0.00798081
0.048834
-0.00545804
-0.0403498
0.00912562
0.0481041
0.031919
-0.0163336
-0.0232588
-0.0206169
0.0180831
-0.0232686
-0.014706
0.0258081
-0.0105865
0.0155684
-0.0446746
-0.0325359
0.0364577
0.0187944
-0.0347985
0.00747644
-0.00186836
-0.0184233
-0.00683314
-0.0177185
-0.0496594
-0.0146814
-0.0207539
-0.0399497
-0.0404722
-0.0279259
0.0184027
0.000593043
0.0109173
-0.0415449
0.016645
-0.0315093
0.033336
-0.0489604
-0.0191025
0.0173028
0.0203118
0.0465258
0.045301
0.0352897
-0.0140414
0.0296351
-0.040353
0.0396604
0.0446032
0.0346779
-0.0389588
-0.0203117
-0.0370257
-0.000105995
-0.0150978
-0.00792186
0.0070432
0.00680539
0.0239271
-0.0129526
-0.0154761
0.0304142
0.0125287
-0.0044664
0.00437554
-0.0383196
0.0548333
0.0245309
0.0299811
0.0194902
-0.00724599
0.0217287
0.0110721
-0.00969248
0.00750291
0.0454122
0.0269853
-0.0406191
-0.0327047
-0.0391737
-0.00978604
0.0129167
-0.0355697
-0.0454509
0.00562004
-0.0317236
-0.0152636
-0.024454
-0.0357359
-0.0220941
0.0163351
-0.00639004
-0.011853
0.00961645
-0.020663
-0.0107162
-0.00111041
-0.00825619
-0.0205876
-0.043026
-0.0296552
-0.0114876
-0.00796554
0.0143053
0.0100705
0.0145904
0.034394
0.0325448
0.0216793
-0.0243245
-0.0358065
0.00359176
-0.0394825
0.000915762
0.0240709
0.00467841
0.0103104
-0.0461134
-0.00286283
-0.0488106
0.0363234
0.00928564
0.0141731
-0.00414382
-0.00763051
-0.0193909
0.0197563
0.00913946
-0.0471635
-0.00459651
0.0279352
-0.0216408
-0.0431186
0.0384013
0.03448
0.0303753
0.040244
0.00429001
0.0244462
0.0240092
-0.0139847
0.00917716
0.0095562
0.0157771
0.0369531
0.0274539
0.0341297
-0.0382117
-0.029876
0.0188898
-0.0451365
-0.0201886
0.0189546
-0.012418
0.0473697
0.0138439
-0.0108642
0.0207697
-0.05016
0.0366786
0.0366561
-0.0074091
5.55843e-05
-0.00749122
0.00970867
-0.023672
-0.0261604
0.000801737
0.0222833
-0.0471401
-0.029501
-0.015623
0.0304065
0.000576894
0.042821
-0.0396435
-0.00167532
0.0126818
0.0107131
0.0184846
-0.0362074
0.0132853
0.0129798
-0.0427455
0.00775043
-0.00539863
0.0388881
-0.0266584
0.00321702
0.00741503
-0.0453535
0.000413863
0.00457488
0.00397587
0.00338219
-0.00366335
-0.0401954
0.0149083
0.041426
-0.0383168
-0.0273433
0.0233648
0.0180492
-0.00909046
-0.00552126
-0.0408516
-0.0171149
-0.0209817
0.0103318
0.0235429
0.0148507
0.0485715
-0.0100975
0.0149688
0.00583933
-0.0431241
0.0116115
-0.00158789
-0.0442984
-0.0140628
-0.0250864
-0.029032
-0.00343863
-0.0189695
-0.00774667
0.029503
0.0380641
-0.0154775
-0.0038911
-0.00576577
0.0120289
-0.0119507
-0.0109482
0.0113118
-0.0290569
0.0385476
-0.040886
-0.0250269
0.00714779
-0.0401847
-0.0319441
-0.0398188
-0.0393263
0.033469
-0.00361645
-0.0253192
0.048761
-0.0238269
-0.00400367
0.015479
-0.0156455
0.0306121
0.00648932
-0.0347913
0.0465049
0.0372187
-0.000430338
-0.0460421
0.0394461
0.0103909
-0.00770552
-0.0474063
-0.00277054
0.00422329
0.00481983
-0.00119096
0.00320067
0.000215007
0.00591624
0.0470667
-0.0395676
-0.0344092
-0.0132442
-0.0149083
-0.0434612
0.0123797
0.0330104
-0.000572876
-0.0406411
-0.0496748
0.0247992
0.00761341
-0.00530023
-0.0256306
-0.0112223
-0.00530687
0.0341153
-0.0192684
-0.0151926
-0.0393864
-0.0170323
-0.0155435
0.00934175
-0.0190266
0.00830677
0.0427029
0.0226452
-0.0528547
0.0273152
-1.91384e-05
0.00353555
-0.0289993
0.0119051
-0.0023235
0.0119301
-0.0344464
-0.0205293
0.0479932
-0.0502499
0.0187881
-0.0255033
-0.0296445
-0.0150527
0.00631011
-0.0188206
0.0142851
-0.0139985
-0.0241582
-0.030714
-0.0231278
-0.0147568
-0.00502889
0.0234307
0.00335845
0.0197087
-0.02297
-0.00609052
0.0169896
-0.0101171
0.00135471
0.0462522
0.0030747
0.00145974
-0.0292758
-0.0308187
0.0228229
0.0100807
0.0148709
0.0055225
-0.00551318
0.00284237
0.0384469
-0.0235828
0.0393055
0.0301774
-0.0331303
0.0216022
-0.0501338
-0.00714917
0.0133882
-0.0224268
-0.028811
0.0220401
0.0506312
0.0287211
0.0122544
0.0209631
0.0445055
-0.000654965
0.0249405
0.00930286
-0.0278568
-0.0309166
0.00222349
-0.0370012
-0.018402
-0.0339197
-0.0021444
-0.0422982
-0.015185
0.0423687
-0.0358141
-0.0254671
0.0246616
0.0205887
-0.0128264
-0.0403033
-0.0163349
0.0111854
-0.0374832
-0.0393965
-0.047199
-0.023365
0.0171447
-0.017538
-0.00680322
0.0339003
0.0530807
0.0301264
0.00428821
0.024203
0.00446257
0.0153415
-0.0148525
-0.0114025
0.0319117
-0.0218982
0.0226552
0.0199775
0.00769842
-0.013563
0.034409
-0.014982
0.0243488
0.0214661
0.0019655
-0.0430961
0.033859
-0.00977048
-0.00989667
0.00216944
-0.0285385
0.0461948
-0.00522458
-0.0108982
-0.0186985
0.0211207
0.00225705
0.0269407
0.0491148
0.0111021
-0.0216122
-0.0145299
0.017499
-0.0316302
-0.0304919
0.046963
0.0477659
0.00121928
-0.0161688
0.0368354
-0.0296169
-0.00400101
-0.0383729
0.0310717
-0.00113385
0.0230778
0.0141723
0.00227374
0.0433691
0.025883
-0.000887515
-0.00608739
-0.00111083
0.0092885
-0.0243577
-0.0375613
-0.0109704
0.0353785
-0.00967253
-0.0275848
-0.0315043
-0.0378859
-0.0131649
-0.0499126
0.00440902
0.00436394
0.0109495
0.0112688
0.0118848
0.0405785
0.0318062
-0.0243758
-0.0249787
-0.0398182
-0.0370762
0.0199023
-0.0159797
0.0389455
-0.0140767
-0.0429931
0.0324035
-0.00473979
0.0365578
0.0337435
-0.0204319
0.0348905
-0.00363689
0.0476588
-0.00492913
-0.0121514
0.0054462
-0.0085522
0.0196371
0.00125623
0.047366
0.0131632
-0.0454102
0.0144291
0.0352076
0.0163559
-0.0157226
0.0403385
-0.0337719
-0.00593644
-0.00938024
0.0535215
-0.0482304
0.044381
-0.0297313
-0.0102605
-0.0334765
-0.00663301
0.0395899
0.00755359
0.00141375
-0.0331614
-0.0129219
-0.0178939
-0.00718017
-0.0182932
0.0358158
0.0500013
0.0126453
-0.0302636
0.000561195
-0.020741
0.0202424
0.027192
-0.043014
-0.00131636
0.0473576
-0.0310213
-0.0365605
0.0261145
-0.00575815
0.0165641
-0.0234245
-0.0421373
0.0313452
-0.0143653
-0.0481109
-0.00109748
0.0235277
-0.0100631
-0.0243463
0.00624338
-0.0184916
-0.0228787
0.00963672
-0.0395235
-0.000597782
-0.00170015
0.000746229
-0.0420002
-0.0286478
-0.0432791
0.00247458
0.0136458
0.0064589
0.012956
0.043984
0.0270085
0.00735502
0.0393863
0.0116011
0.0290532
-0.04233
0.0389528
0.0258124
-0.0277513
-0.0248025
0.0369245
-0.00155739
0.00857189
0.0427218
0.00546494
-0.0395061
0.024851
0.0176772
-0.0490345
0.00209033
-0.0152782
0.0394262
-0.0170282
-0.00309601
-0.0396645
0.00612098
0.0273756
-0.000584981
-0.0080177
0.045237
-0.022113
0.00206594
0.012943
0.000329498
-0.00728787
-0.049319
-0.0423255
-0.00371237
-0.0411572
-0.0204155
-0.00946304
-0.0325379
0.00566854
0.024986
-0.00639874
-0.0255586
-0.0101493
0.014166
0.0273552
-0.0418844
0.044671
0.0432618
0.0310747
0.0360131
-0.0514735
-0.0208553
-0.0340187
0.0337229
-0.0216573
0.0123485
-0.00743679
0.0334031
0.0430431
0.0469904
0.00502567
0.0322397
-0.0131062
0.017331
0.0126581
0.0211198
-0.0548121
0.00787053
0.0100667
0.0331317
0.0054974
-0.0199219
0.0536974
-0.0270978
-0.0219649
-0.0286983
-0.0121945
0.0357215
-0.0207431
-0.0353547
-0.0263293
0.0459115
-0.0539546
0.0250009
0.00367562
-0.0211057
0.00448252
-0.0122386
0.0290768
-0.00483903
-0.000792439
0.00486839
0.0292096
0.0186319
-0.00573444
-0.0203723
0.0313129
-0.00273404
0.0377187
0.00122449
-0.035289
0.0275033
0.0357925
-0.0340108
-0.0369867
0.029189
0.00852894
0.0136004
-0.0242124
0.0178958
-0.0408167
0.0108196
-0.00267758
0.0452753
0.0398751
0.00211951
0.0120713
-0.0041409
-0.0303327
-0.0175299
0.0350779
-0.0498297
0.0511563
-0.0260207
0.0314638
-0.00276549
0.00570194
-0.00181118
0.039043
0.0185416
-0.00271448
-0.0332738
0.0173675
-0.000693631
-0.0224478
0.0245596
-0.0348345
0.0486122
-0.0157666
-0.0233518
0.0145765
-0.0148724
0.00150561
0.0259457
-0.0348306
0.0519681
0.0238773
0.00486607
0.039537
-0.0343579
-0.0252689
0.0200538
-0.025967
-0.00705759
-0.00607571
-0.0212192
0.0245742
-0.011369
-0.00282873
-0.0133233
-0.0437386
0.0143424
-0.0331426
0.0289257
-0.0267602
0.0298835
-0.00203978
-0.0412006
-0.0053123
-0.0340961
0.00537959
-0.0395341
-0.03561
-0.0156789
-0.0096487
-0.0222717
-0.0509644
0.000636934
0.0296369
-0.0464554
0.0081151
-0.039848
0.00193377
0.0130319
-0.0472845
0.0143434
0.0258967
-0.0243149
-0.0415369
-0.00879758
0.0411986
-0.0167567
0.00899038
0.016119
0.0551084
0.0221234
0.0430104
-0.0130549
-0.00971206
0.0257218
-0.0139285
0.00326141
-0.00438766
-0.0241115
-0.0166242
-0.0464443
-0.0404579
-0.0159065
0.0303838
0.0176412
-0.0203847
0.0128265
-0.033373
-0.0239346
0.0278221
-0.0055544
0.022822
0.00913458
-0.0166428
-0.0410894
-0.0474041
-0.0174612
-0.033891
0.00655912
0.00508735
0.00432214
-0.0311135
0.0442494
0.0097092
-0.0201979
0.022816
-0.0415926
0.0321663
0.0368619
0.0307175
-0.0265435
-0.0254283
-0.0279714
-0.0280725
0.0258709
-0.0211059
0.0110746
-0.0494588
-0.0378755
0.0190601
0.0340135
-0.0295127
-0.0321399
0.0207729
0.0247053
0.000256478
0.000610871
0.0283842
0.0257514
-0.0496846
0.0197526
0.0247057
-0.016313
0.0278748
-0.0182732
0.0334002
-0.0194834
0.014561
-0.0272097
-0.0363417
0.0309261
0.0397871
-0.0267929
-0.0350148
0.0213748
-0.0232194
0.00626198
-0.00219101
0.00840383
0.0133758
-0.039443
-0.0270218
-0.0383403
0.0193546
-0.0220686
0.0110039
0.0341479
-0.0290476
-0.0209879
-0.00691947
0.0262597
-0.0351846
0.0371692
-0.00487978
-0.0215855
-0.0391504
-0.0334363
0.0271516
0.0281785
0.0340147
0.0390588
0.00587506
-0.0297958
-0.000497032
-0.0212684
0.0201339
-0.0403025
-0.0289658
0.00984349
0.0401777
0.00286958
-0.0110519
-0.0351174
0.0169088
0.000516775
0.0199969
-0.0345667
-0.00528528
0.0277316
-0.00123921
0.0517917
0.0267487
-0.046616
-0.0307602
-0.0294615
-0.0529437
0.0416805
-0.0186022
-0.00552076
-0.030502
0.00274131
-0.0144575
0.00447543
-0.0215141
0.0142645
0.0308275
0.0465921
0.0452298
-0.00146254
0.0392989
-0.0013434
0.0379182
-0.00873752
0.0301848
-0.0259419
-0.00802471
-0.0433064
0.0386864
-0.0356387
0.00441434
0.043432
-0.0218185
0.0119481
0.0517096
-0.00363147
0.0215654
0.00926542
-0.0476317
0.0104055
-0.0468376
0.00136135
-0.0115851
0.00560076
0.00670885
0.0182812
-0.00894981
0.0401853
0.0112516
-0.0224499
-0.00873723
0.00817865
0.0366488
0.039337
0.0393129
-0.00210687
0.0144118
-0.00781228
0.0204922
-0.022867
0.00599432
0.010324
0.0263079
-0.0311688
-0.042082
0.0223829
-0.0070969
0.0195112
-0.0313891
0.0368138
-0.0389807
-0.0291341
-0.0191169
-0.0483799
-0.0281412
0.00859545
0.000370459
-0.0189927
0.0300051
0.0387587
-0.0123001
0.0330807
-0.0318217
0.00294012
-0.0049116
0.0436508
0.0521976
-0.0312075
0.0351905
-0.00321048
0.0448197
0.0423518
-0.0140882
-0.0445098
-0.00339857
-0.0379581
-0.0232107
0.0406823
-0.0103029
-0.0458394
-0.0313686
-0.014417
0.00539983
0.0128014
0.0220187
0.0325884
-0.00817666
-0.0438212
-0.0293733
-0.00496609
-0.0260138
-0.036577
0.0274871
0.0355795
-0.0297523
0.0469599
0.00683507
0.0421694
-0.012841
0.00460098
-0.0285106
0.00949829
-0.0345074
0.043009
-0.00716341
-0.00339051
-0.0250064
0.0371223
-0.00401909
-0.0512432
-0.0428046
-0.0270844
-0.00078934
0.0176868
0.0205319
-0.0367476
0.0298698
-0.0018421
-0.019289
-0.00637069
-0.0170631
-0.0424243
-0.0035267
0.0154226
0.0410541
-0.0308018
0.0132694
-0.00909835
0.0456957
-0.00146264
-0.0166854
0.0276646
-0.0454879
0.0408444
0.0332623
0.0205515
0.04998
0.0183577
0.024541
0.0140499
-0.0285873
-0.0147018
-0.0201153
-0.0248923
0.0272199
-0.0167821
-0.0326756
-2.48066e-05
0.0304353
0.0437631
-0.0252625
0.022201
-0.0107244
0.0369409
-0.0331523
0.0350696
-0.013882
0.0304111
-0.0475679
-0.0357683
-0.0231931
-0.00691086
0.00500883
0.0036618
0.0156541
0.00900078
-0.0374511
0.036749
-0.0388257
0.0110197
0.00943845
-0.0153528
-0.0311557
-0.0496785
0.0452302
-0.00246758
0.027243
-0.0412599
-0.0102644
-0.0153001
-0.0341574
-0.0490725
0.0379853
-0.0254511
0.0464832
0.0409079
-0.049244
0.0438326
0.0106088
0.0144338
-0.0201257
-0.0041476
-0.0160281
0.0115589
0.0141392
-0.0250596
0.00990773
-0.0164416
0.0141537
0.0122798
0.0188535
-0.00680468
0.0334132
-0.0172409
-0.0433058
-0.0265838
0.0136646
-0.0182631
-0.00708449
0.0417897
-0.000627967
-0.0167864
0.00508875
-0.0169943
-0.0185022
-0.0423552
0.000737337
0.0175951
-0.020268
-0.0148682
-0.0113005
0.0408952
-0.0214501
0.0306574
-0.0161189
-0.039771
-0.0448858
-0.0291173
0.00369637
-0.0190873
-0.0242592
-0.0144575
0.0154361
-0.024476
-0.0309107
0.0444421
-0.00141533
-0.0466996
-0.0128277
-0.0171923
0.0104592
0.0520388
0.0174378
0.00900623
0.0160647
-0.0288004
0.0381353
0.0212384
0.0168772
0.0218872
-0.0476251
0.0332276
0.0111846
-0.0500524
-0.0305509
0.0456236
-0.00274203
-0.0449003
0.0274346
0.0396409
-0.00531956
-0.0190942
-0.0054557
-0.00229422
-0.0343917
0.0420268
0.046477
0.0375033
0.0510841
0.0367237
0.0486337
-0.0236307
-0.00365298
0.0406355
0.0122927
0.0381414
0.0280026
0.00486555
0.0340037
0.0247881
0.0241539
-0.0148169
-0.0450273
0.0310704
-0.0243027
-0.00531937
0.0209843
-0.00440352
-0.0456924
0.0315809
0.0442968
-0.0409097
0.0378991
-0.0183764
-0.00518298
-0.0177486
-0.0350599
-0.00727142
0.0257914
0.046201
-0.0151169
-0.00711773
-0.0139738
-0.0172492
0.0217871
0.00925563
-0.00887063
0.0451
0.0217904
-0.027851
-0.0463232
0.0264549
-0.0247231
-0.039973
-0.0359803
0.0278148
0.0252811
-0.0275921
0.0196894
0.0105802
-0.00617422
-0.0257571
-0.0249649
-0.0372583
0.0135112
0.0330172
-0.0406696
-0.00261361
0.052777
0.040799
-0.00181849
-0.0179714
0.0149983
-0.0204919
0.03685
-0.0089749
-0.0386825
0.0385656
0.0163034
-0.0428644
-0.0462623
0.00979517
0.0329866
-0.0133467
0.0407707
0.0456237
0.00655357
-0.00856547
-0.00835475
0.0337653
0.0227104
-0.027468
0.00841447
-0.00689691
0.00916963
-0.014498
-0.0356417
0.00933881
-0.0314527
0.0434656
0.048044
0.0208268
-0.0168662
-0.0449672
-0.0297928
-0.0145692
-0.024349
0.0356058
-0.0481783
0.0208537
0.0223393
0.0016329
-0.0193763
0.0506712
-0.0285503
0.0265966
-0.0141053
-0.00137073
-0.0406661
0.0346526
-0.0302992
0.0361096
0.00295289
-0.0421039
0.0383601
0.04088
0.0265226
-0.0397946
-0.0193882
0.0213632
-0.0327916
0.0220062
-0.00362099
0.0305679
0.0221782
0.0284975
0.0200278
-0.00768719
0.0335286
-0.0279745
-0.0511619
-0.0134607
-0.0187825
0.04261
-0.0360244
0.00885924
0.0144685
0.00404419
-0.00492875
-0.0246612
-0.0150708
-0.00430109
0.00893643
0.0236967
-0.0107661
-0.00427889
0.0283929
-0.0329859
-0.0372876
-0.0373404
-0.0431156
-0.0392294
0.0307687
-0.00423612
0.0186537
-0.0274562
0.0166969
0.00475908
0.00403637
0.0193885
0.0138874
-0.00544201
0.00704119
0.0309658
-0.0337327
0.0179797
0.0328516
0.0428134
0.0515981
-0.0392218
-0.0115282
-0.0253018
-0.0336631
-0.0117751
-0.0109463
-0.0087663
-0.0129133
0.000260809
-0.0241123
-0.0433855
-0.00110385
-0.0277085
0.0403988
-0.0188583
0.00236428
-0.0188608
0.0257442
-0.0167667
0.0128703
0.0507311
-0.0314807
0.0144889
0.00426657
0.0294336
0.0122846
-0.00830551
0.0238347
-0.0368885
7.43972e-05
0.027363
0.0416609
-0.0279106
0.0147379
-0.0235853
-0.0203202
-0.010138
-0.0113062
-0.00904986
-0.00378103
0.000152337
0.0283916
-0.0216011
0.0329446
-0.0156455
-0.0266149
-0.0247558
0.0304526
0.0194988
0.0077859
0.0174008
-0.0484426
-0.0217375
-0.00751292
0.000924879
-0.0417594
0.0453168
0.0195706
-0.0024381
0.00476776
0.0361416
0.0222877
-0.0322905
-0.0215552
0.0314801
-0.0294308
0.0417666
0.0204949
0.0192483
-0.00155741
-0.0497287
0.0355366
0.0133869
0.00504633
-0.0262748
0.0496105
0.0049267
-0.00501712
-0.0399559
0.0204138
0.00998159
-0.0170723
0.00537056
0.0157928
-0.012587
-0.0399257
-0.0302678
0.0156579
-0.0294374
0.0317823
-0.0147185
-0.0171843
-0.0307147
0.0168656
-0.0105998
-0.0455892
-0.0321122
0.0212147
-0.00519371
0.00962022
0.0401203
-0.00264135
0.0228898
-0.0263675
0.0147918
-0.0199699
0.0246154
0.00117004
-0.00338523
0.0490569
-0.0157492
0.0268727
0.0511919
-0.0362124
-0.032494
0.00959698
-0.0424554
0.0460123
-0.0337301
-0.00388031
-0.0010715
-0.0134585
-0.0430218
-0.0410451
-0.0275085
-0.012759
-0.00672241
-0.0261136
0.0348072
-0.0102536
0.0354446
0.0196377
-0.0474926
-0.00730506
0.016245
-0.029288
-0.0355936
0.0132185
-0.0104728
-0.0271934
-0.0415392
0.0123152
-0.018661
-0.0343748
-0.0505034
-0.0133508
-0.0154433
-0.0361438
0.0337166
0.0208275
-0.0398132
0.0347406
-0.00225641
-0.0383795
-0.00440745
-0.0233107
0.00292601
0.0136271
-0.0399817
-0.00189682
-0.0211378
0.0274338
-0.0161119
-0.0122231
0.016535
-0.0297035
-0.00555285
-0.00442379
0.00812958
-0.0231537
0.0194581
0.0275889
-0.0227406
-0.0357118
0.0349769
0.00484072
-0.00683392
-0.0264243
0.0162863
0.0359814
-0.0336192
-0.0347963
0.0444784
-0.00269624
0.0109801
0.0155226
-0.040679
0.00337064
-0.0022347
-0.00428605
0.00375082
0.0116582
-0.00319579
0.0289407
-0.000931862
0.00740951
-0.00669823
-0.00240798
0.004213
-0.0483055
-0.0307265
-0.0165075
0.0332238
0.0160134
-0.0133604
0.0082749
-0.0040849
0.0372561
0.0125333
-0.0364136
-0.0306207
-0.0177446
-0.037862
0.0118
0.0322955
-0.0147049
0.045581
0.0298247
-0.0161053
-0.0451701
0.0445144
0.0208095
0.0190682
0.0033166
0.0141522
-0.00606657
0.040968
-0.0209304
-0.0219454
0.0434723
-0.0218854
-0.0374284
-0.0208026
0.0459
-0.0495702
0.0278369
0.0467112
-0.0110109
-0.00934325
-0.021813
0.0225751
-0.0232738
-0.0306299
0.00661705
-0.0407869
0.0290317
-0.0230291
0.0237703
0.020237
-0.00600963
0.0135757
0.0301241
-0.0411574
-0.012633
0.00725745
0.0206287
-0.023625
-0.0260788
0.00990089
-0.00667226
0.00971709
0.0334747
0.00933435
-0.0194318
-0.000308314
0.0188112
0.00712278
0.0353169
-0.000171385
-0.00145242
0.00674235
0.0165017
-0.0279533
-0.025495
0.0072285
-0.0209564
0.000671981
0.0136827
-0.00447933
0.0200135
0.0121017
0.0479084
0.0421669
-0.0195829
0.0135587
-0.0368228
0.0103776
-0.0203079
-0.0491076
0.00092075
-0.0281701
0.00553645
-0.00598447
-0.0356212
0.00284004
-0.00795434
-0.0231862
0.0477433
-0.00209435
0.00847423
0.019578
-0.037893
0.0175581
-0.0319006
0.0355834
0.00533865
0.026108
0.0466236
-0.00746212
0.0320192
0.00054336
-0.0155126
0.00476002
-0.0105821
-0.0367435
-0.0120777
-0.00805339
-0.0480048
0.0104623
-0.0105889
-0.0166965
0.0281879
0.0122506
-0.0188782
0.0239623
-0.0109136
-0.00343185
-0.0386296
0.00397298
-0.0182947
-0.0255796
-0.00239631
-0.0441348
-0.0144183
0.00281466
-0.00425832
-0.00654308
-0.0353804
0.0267565
-0.019713
-0.044571
0.00516121
