0.00538982
0.0438866
0.0548634
0.350567
0.566155
0.928155
-0.5721
0.218727
-0.215152
-0.249135
-0.534507
-0.602845
-0.139965
-0.345522
-0.559597
-0.0389975
0.00676382
0.413735
-0.605417
0.53027
-0.545918
-0.138126
0.174188
0.725473
-0.428194
-0.408439
0.169796
0.495504
0.578057
0.457832
-0.529336
-0.732164
0.517797
0.0171346
-0.0495114
0.882957
0.337756
-0.813303
-0.509043
1.21933
0.137934
0.379317
-0.710012
-0.248744
0.178783
0.31756
-0.831419
0.304696
-0.720523
-0.378337
-0.375152
0.392525
0.0156356
0.245287
-0.567843
0.998578
-0.0213953
-0.0437186
-0.514123
-0.527189
0.536116
-0.796187
-0.0620576
-0.646207
0.346273
-0.0171582
0.598224
-0.0362132
0.171115
1.22852
-0.562654
0.31428
0.00425126
-0.878007
0.951969
-0.105054
0.930658
-0.632968
0.0396475
-0.065643
-1.14487
0.0700585
0.629237
-0.743923
0.0928342
-1.26593
0.884941
0.583536
0.364057
0.152063
0.947837
0.17466
-0.0699139
-0.387779
-1.06109
0.137376
0.422063
-0.161447
-0.923267
-0.0783682
-0.952262
0.60999
0.897507
0.948696
-0.873865
0.101606
-0.539249
-0.159581
0.340531
-0.652934
0.0344161
0.310362
0.0192748
-0.498137
-0.886902
1.02815
0.180807
0.158799
0.738078
-0.810889
0.628683
0.463282
-0.720263
-0.527489
0.643928
-0.826682
0.0563201
0.884019
-0.781492
-0.83401
0.745272
-0.0365511
-0.624191
-0.582018
1.11304
-0.487459
-0.429985
-0.436616
0.321995
0.160994
0.528509
0.651371
0.272925
0.161686
0.428431
0.0391434
0.231648
-0.6961
0.234764
0.08632
-0.101517
-0.99301
-0.666614
0.251128
-0.785043
0.815463
-0.0899179
-0.0849153
0.516823
0.335278
-0.720285
0.299381
-0.357907
-0.010077
0.951388
-0.708472
-0.0909323
-0.268212
0.17553
0.676802
0.0345351
-0.567215
-1.12016
-0.397108
-0.651925
0.179619
-0.227718
0.270182
0.694554
-0.276425
0.309174
-0.741083
0.644842
-0.221795
0.24815
0.673724
-0.757728
-0.201751
-0.506432
-0.305409
0.436519
-0.295997
0.216898
0.40346
-0.383205
0.547847
-0.448738
-0.136672
0.717918
-0.723603
0.212167
0.535038
1.10433
0.241705
0.1461
0.296533
-0.934676
-0.267527
0.269924
0.0893179
0.996474
0.106034
-0.359366
-0.699297
-0.0552159
0.6617
-0.514898
0.581583
-0.412943
-0.150712
-0.0820461
0.697583
0.801825
0.0277942
-0.253582
0.00272381
0.883763
-0.666971
-0.170121
0.648371
0.658239
0.66181
0.551996
0.155981
0.522732
1.04682
-0.0709738
0.361414
0.0585939
-0.741604
0.0194202
0.379538
0.80125
-0.57764
-0.403041
-0.265867
-0.346483
0.641763
-0.102467
-0.231817
-0.626262
-1.04869
0.87604
0.0946203
0.302772
1.25138
-0.588836
-0.779398
0.104171
-0.268302
0.120649
-0.419704
0.710795
0.572082
-0.102617
-0.339053
-0.825898
0.61582
-0.469703
0.505945
-0.159814
0.686034
0.204934
-0.536806
-0.872712
0.142552
0.500454
0.760583
0.515116
0.362251
0.0147277
-0.292573
0.139177
0.294606
0.131831
0.273102
-0.386062
0.678076
-0.7267
-0.97516
0.451109
-0.00162616
0.280141
-0.322325
0.724313
0.832106
0.558461
0.724099
0.703943
0.579277
0.46651
-0.0511282
0.197928
-0.373932
-0.455829
-0.270567
0.608414
-1.13966
0.459247
0.41431
0.598408
1.22955
0.401059
-0.0351008
0.0637909
-0.870517
0.167162
0.343061
0.226135
0.112399
-0.482371
-0.298802
0.0739204
0.337298
-0.218842
-0.481835
0.0638187
-0.260553
0.284635
0.00718967
-0.105882
0.521632
-0.0662901
0.442614
0.300318
-0.0845541
-0.161216
0.709401
-0.719874
-0.568315
0.554232
-0.826074
-0.653423
0.34572
-0.555916
-0.772005
-1.03157
0.860493
0.864517
-0.546156
0.891805
0.578267
-0.0690123
1.20036
-0.0769523
0.488094
0.314686
-0.34749
-0.41668
-0.111202
0.818576
1.00596
0.156501
0.468235
-0.744372
-1.34174
0.122843
-0.532964
-0.746457
0.0733412
0.126411
0.710177
-0.453867
-0.628276
0.249952
0.0735128
0.312209
-0.250842
0.484651
-0.67076
-0.317044
0.77244
0.0859401
-0.830088
-0.771615
0.231759
0.0207423
0.204915
-0.172942
-0.138988
-0.662299
0.483163
-0.61231
-0.59413
0.5826
-0.138786
0.078676
-0.626445
0.915488
-0.328389
-0.354566
-0.529619
-0.293015
0.334104
-0.00403456
0.239107
0.92388
-0.253703
-0.316923
-0.271832
-0.161356
-0.0304482
0.363004
-0.00813445
0.456403
-0.8755
0.052233
-0.167219
0.334265
0.47139
-0.168241
0.63256
0.481172
0.743629
-0.563984
0.592066
0.188797
0.444656
-0.914995
-0.804218
-0.12769
-0.456339
0.732896
0.0166427
0.357458
0.718329
0.250059
-0.603025
0.99295
-0.0961149
0.645096
-0.597885
-0.873868
0.566541
-0.133826
0.00155044
-0.146756
0.115464
0.74621
0.303047
-0.484999
0.617042
-0.0386297
0.621739
-0.402547
0.371059
0.879591
0.598186
0.379388
0.6812
-0.202797
0.975081
0.109085
0.568918
-0.274855
0.191795
-0.267106
-1.06411
0.638094
-0.816197
0.019328
0.101041
-0.509916
0.325765
0.721012
0.970162
-0.22562
-0.359623
-0.466352
-0.522406
-0.276774
-1.06526
-0.913784
-0.414329
-0.595608
-0.148435
-0.815076
-0.371526
0.608508
-0.0508119
-0.610383
0.58102
1.01223
-0.0999862
-1.23378
0.301798
0.539193
-0.270431
0.554514
0.243053
-0.401591
0.877869
0.793476
0.0596295
0.496777
0.633325
-0.712355
0.817284
0.829037
0.757973
0.688585
0.490843
-0.271722
-0.424345
-0.73181
-0.311862
-0.125738
0.670787
0.508859
0.581551
0.716944
-0.268799
-0.965916
-0.15702
-0.359285
1.01393
0.172801
-0.0331769
0.933658
-0.542236
0.224956
-0.103921
-0.107425
-0.308011
0.0473884
0.246313
-0.30338
-0.923479
-0.446521
0.358854
0.749078
-0.374461
-0.412464
0.907304
-0.393596
0.104979
0.0547888
-0.587791
-0.491578
0.618411
0.608355
0.0909198
-0.680846
-0.483139
-0.643385
-0.996615
-0.0693524
-0.195411
-0.373257
0.729535
0.194383
0.393837
-0.107547
0.159817
0.276884
0.191445
0.848912
0.473203
0.607664
0.634335
0.517854
-1.00274
0.519178
-0.291981
-0.46796
0.944462
0.67282
0.831353
-0.288925
0.354833
0.73126
-0.123541
0.73355
0.404246
-0.091431
-0.128723
-0.305159
-0.478652
1.08348
-0.368748
0.161777
-0.738688
0.623353
0.243207
-0.0365833
0.272535
-0.0580371
0.708371
0.0325031
-0.839574
0.260763
0.117633
-0.743303
0.365147
0.781129
-0.65243
0.660331
-0.25972
0.32788
0.495645
-0.201415
0.173845
0.728258
-0.485913
-0.327256
-0.303
-0.739972
-0.153649
-0.0463518
0.620101
-0.406652
0.582095
-0.382055
1.10038
-0.635071
-0.361571
-0.0335942
-0.108896
-0.404545
-0.224922
0.167777
0.510193
0.13518
-0.223487
0.797911
-0.112968
0.38635
0.211871
1.22963
-0.16504
-0.0722635
0.0950593
-0.352944
-0.523534
-0.801714
-0.376759
0.945524
-0.590259
0.0913493
-0.116648
-0.605869
-0.0271199
0.230131
0.439198
0.68765
-0.15257
0.347854
0.785768
-0.561471
0.121078
0.0626291
0.417391
-0.726738
-0.0113078
0.3257
0.617155
0.380818
0.0753132
-0.355103
-0.815609
0.134338
-0.429787
0.0563306
-0.662242
0.728071
0.614271
0.321719
0.79249
0.620397
0.637967
0.104951
1.03339
0.682435
-0.374819
0.300044
1.17735
0.569509
-0.652572
0.16185
-0.135252
-0.859328
-0.652347
0.305162
-0.481331
-0.943503
-0.557319
-0.892245
0.0074876
1.03073
0.157469
0.664939
0.487172
0.209577
0.68742
-0.335784
-0.735554
-0.0933411
0.58836
-0.923997
-0.0646416
-0.0855807
-0.128307
-0.242502
0.341041
0.0248027
-0.523733
0.168511
0.890234
0.140389
0.947971
0.315337
0.825184
-0.505019
0.752516
0.421336
0.245919
0.357376
0.0998826
0.626567
-0.683915
0.35554
-0.192006
0.0806643
-0.88953
0.513237
0.458456
1.07716
-0.571953
-0.220083
0.0751524
-0.566674
0.264547
0.683752
0.842086
0.608943
0.492332
-0.679161
0.606368
-0.21076
0.677469
0.406146
-0.182033
-0.917953
-0.865733
0.00254135
-0.194617
0.596737
0.708358
-1.01197
-0.319338
0.190325
0.165144
-0.474481
-0.286702
-0.0360147
0.428242
0.249264
0.676358
-0.338489
0.737076
0.740012
0.436214
0.921157
-0.00412753
0.905177
0.367823
-0.0404438
0.379934
0.740407
-0.354468
-0.882997
0.38411
-0.547384
-0.54995
-0.456516
0.100207
-0.620041
-0.816661
-1.06002
0.68053
0.465359
0.311563
0.572935
0.440597
0.741829
0.406392
-0.211011
-0.976244
-0.249054
-0.689825
-0.244425
0.729911
-0.849472
0.0771605
0.149333
0.601608
0.657008
-0.328247
0.599375
0.651869
0.763076
-0.0171047
-0.490839
0.632063
0.37504
-0.646257
0.53658
-0.832085
-0.363224
-0.590186
0.780507
-0.502485
-0.433839
-0.398746
-0.209288
0.104684
-0.126944
0.862862
0.713861
0.611259
-0.559418
-0.161676
0.276357
0.113504
0.510944
-0.387949
0.0713787
0.727475
-0.0734946
-0.905064
0.343943
-0.941208
-0.272225
0.471878
-0.861117
-0.542576
-0.311078
-0.0782961
-0.681665
0.329585
0.124818
-0.369446
-0.672471
-0.856468
0.744674
-0.226061
-0.402757
0.152463
-0.0330743
0.625098
-0.128452
-0.684341
-1.04968
0.0399596
0.177591
0.94152
0.854075
1.22783
-0.587416
-0.867735
0.349734
0.884716
-0.730005
0.732133
0.704855
-1.2445
-0.747794
0.177396
0.461679
1.02149
-0.412758
0.566917
-0.671875
-0.320727
-0.621335
0.338594
-0.716621
-0.145769
-0.208151
0.155833
0.233526
-0.485421
-0.0347728
0.335195
0.256462
0.623778
-0.599727
-0.290693
-0.346987
0.405034
-1.12495
-0.209679
-0.148466
0.390675
-1.04805
-0.942737
0.176734
-0.170996
-0.665951
0.123197
-0.337664
-0.839145
0.452112
0.308527
0.0716303
-0.275188
-0.355987
0.48358
0.410718
-0.233641
-0.0313369
0.823501
0.299535
-0.598696
0.077003
-0.458837
-1.00781
0.23353
0.316504
-0.344647
-0.0372374
0.300907
0.0825626
-0.268856
0.576545
0.630874
0.181412
0.256588
1.18667
0.0988138
0.528697
0.21383
0.675467
0.842989
-0.00272127
0.268635
-0.28694
0.0719679
0.639658
-0.000144369
0.208832
0.751162
-0.176195
-0.221812
-0.947394
-0.792014
0.437885
-0.290733
0.454106
0.466178
-0.278723
0.343994
0.195539
-0.0443131
0.435291
-0.133847
0.717902
-0.483891
0.121248
0.589586
-0.651853
-0.703165
0.231165
-0.696782
0.126534
-0.927942
-0.869885
0.444653
0.604233
-0.421897
-0.127441
-0.873851
0.297357
-1.38592
0.334593
0.60022
0.711949
-0.537433
0.372199
-0.378767
0.19471
0.834084
-1.02144
-0.40454
-0.450942
-0.454787
0.752158
0.390834
0.872718
-0.738004
-0.156883
-0.622245
0.485425
0.764526
-0.223857
-0.462472
1.1258
-0.66111
0.205419
0.595842
-0.678668
-0.0282351
-0.0527889
0.456941
0.533548
-0.557468
-0.377462
0.0682349
-0.376569
0.0852821
0.32
-0.834006
0.25957
0.132382
0.415201
0.912988
-0.00215958
-0.332354
-0.849352
0.391278
0.288874
0.0392118
-0.566903
0.702895
-0.558077
-0.0194712
-0.0417709
-0.290358
-0.752753
-0.221795
-0.282943
-0.462939
-0.400494
-0.59352
-0.951787
-0.306181
0.794587
0.970848
0.496486
0.32438
-0.0372392
-0.867217
0.597725
0.131137
-0.855274
0.682611
0.307675
0.541784
0.174813
-0.980395
0.219885
0.208209
0.554558
1.26484
0.380582
0.497714
-0.876848
-0.422499
0.873118
-0.31259
0.573844
0.279019
0.730296
-0.63004
-0.0165519
-0.0123935
0.723664
0.702065
0.657519
-0.0760961
-0.712071
1.05304
-0.338476
-0.0257054
0.222151
0.671917
-0.513428
0.0780119
-0.536119
-0.204923
1.18353
-0.226229
-0.234886
-0.466159
-0.878819
0.807278
0.328421
0.336874
0.320285
-0.518922
0.195556
0.783292
-0.766486
-0.327702
-0.368657
0.106821
0.673555
0.165038
-0.760857
-0.191923
-0.960282
-0.102384
0.157769
-0.303287
-0.944324
0.440938
0.0058794
0.636376
0.311871
-0.881682
1.27792
-0.858507
-0.139266
0.0747728
-0.494513
-0.941596
-0.346721
-0.264997
-0.91807
0.114187
0.721993
-0.930276
-0.506975
0.0571215
0.807714
0.306746
0.812886
0.0218563
-0.654219
0.127351
-0.0847288
-0.443075
-0.106957
0.0211324
-0.320837
0.518245
-0.117941
-0.551695
0.856929
-0.629986
0.664042
0.0902145
0.190056
1.15612
0.0187475
-0.593008
0.910633
-0.668812
-0.18334
-0.00535848
-0.187845
0.0917717
-0.0544437
-0.50728
0.420518
0.00613303
-1.02897
1.06083
0.197321
0.578217
0.18411
-0.670697
-0.20062
-1.36448
0.669217
0.8248
-0.728193
0.0682191
0.58764
-0.0453629
0.0538815
-1.09742
0.661791
-0.216063
0.74874
-0.0908863
-0.0522818
-0.462118
0.36055
0.840061
0.487172
0.172824
-0.634093
-0.795214
-0.123353
0.712432
-0.938869
-0.412194
0.631497
0.417594
0.303778
-0.474396
0.536873
-0.0493729
-0.785845
-0.469894
-0.173772
0.936452
-0.314596
0.553823
-0.464263
-0.00707366
-0.409949
0.20518
1.16969
-0.788433
-0.682972
-0.840022
-0.521295
0.347693
0.415054
-0.301087
-0.110796
0.713298
-0.589383
1.24403
-0.14239
0.539678
0.669492
-0.581727
-0.138634
-0.705364
-0.463612
-0.165921
0.721657
-0.78341
-0.299053
1.00677
-0.120258
0.413894
-0.216206
0.420495
-0.879714
0.140291
0.258164
0.845064
0.727915
-0.295291
0.868007
0.245051
0.0889122
-0.0997863
0.85417
-0.695734
-0.418133
1.10814
-0.553729
-0.378323
-0.683407
-0.49609
-0.808498
0.441061
1.01344
0.356578
0.303285
-0.296806
-1.10989
0.318271
0.733793
0.980853
0.782436
0.713743
-0.811268
-0.722925
0.407932
0.047365
0.464841
0.0423579
0.306495
1.2477
-0.192973
-0.355594
0.153653
0.354732
0.422044
-0.0929474
-1.14401
-0.678063
0.550128
-0.366612
0.497021
-0.459581
-0.299292
-0.168308
-0.389837
0.2089
-0.653447
-1.08914
-1.2126
-0.557504
-0.315383
-0.0310417
0.722254
0.0864237
0.619493
1.42946
-0.132843
-1.16524
-0.128566
0.567098
0.760202
-0.869207
-0.267199
-0.373085
-0.704769
-0.736042
-0.678875
-0.500839
0.00552972
-0.414377
0.223954
0.0426994
-0.114685
-0.369231
0.73902
-0.198941
0.647975
-0.372833
0.0643125
-0.326184
-0.184316
-1.34794
0.434514
-0.460074
-0.800501
-0.384033
0.30934
-0.733093
0.0120382
0.112437
-0.397088
0.250886
-0.590397
0.143757
-0.711295
-0.733757
-0.00864633
-0.600126
0.704733
0.391174
0.594671
-0.425689
0.482122
-1.04232
-0.708586
-0.00324934
-0.701149
1.35026
0.295164
-0.534101
0.693854
0.335425
1.06649
-0.25148
0.0116171
-0.739775
0.296317
0.764467
0.210587
0.493375
0.0531859
-0.126685
-0.0178497
-1.40922
-0.675913
-0.0212934
-1.37763
-0.1539
-0.856992
0.981913
-0.808033
-0.0416005
-0.331691
-0.708438
0.0603784
0.195433
0.132499
-0.665855
-0.870928
1.05815
0.705198
1.10477
-0.303988
-0.647477
0.779536
-0.140133
0.600753
-0.24236
0.45796
-1.38936
0.043145
0.624563
0.496598
-0.0721874
0.352035
-0.323432
0.196865
0.195023
-4.31106e-05
-0.566096
0.862692
-0.622169
-0.923662
0.885252
0.805793
-0.329568
-0.453176
0.761078
0.311983
-0.769322
0.314616
0.780407
0.282108
-0.165618
0.694102
0.380014
-0.898268
-0.0403421
-0.395996
0.126806
0.960827
-0.620541
0.755026
1.01331
0.338937
0.204774
-0.119826
-0.18545
-0.178527
-0.185114
-0.463711
-0.206862
-0.347026
0.281992
-0.556461
0.328257
0.0096876
0.589599
0.510703
0.618852
0.449193
-0.171809
0.0298317
0.484594
-0.284316
0.836085
0.132813
0.489076
0.345988
0.549557
0.995691
0.0307833
0.676029
0.325379
0.189277
0.9009
0.126764
0.755847
-0.196504
0.524591
-0.0606654
0.628577
0.515365
-0.194761
0.112849
-0.438111
-0.570505
-0.20823
0.490854
-0.232212
0.274652
0.0106979
0.538036
-1.05126
-0.671994
0.134221
-0.300572
0.0494117
-1.14146
-0.474894
-1.14633
0.479775
0.33416
0.796943
-0.448165
0.367694
-0.0860425
0.602043
0.786789
0.0913906
-0.634834
-0.164452
-1.39537
-0.193521
-0.23012
-0.716533
-0.778393
-0.605593
-0.722542
0.527034
0.468733
0.0685116
0.374093
0.638826
-0.425418
-0.25008
-0.303538
-0.190276
-1.159
0.474764
0.349288
0.479085
-0.870409
0.644221
-0.316344
-0.140491
-0.231476
-0.342836
-0.616383
-0.956856
-0.133955
0.541079
0.31244
0.570873
0.826654
0.380672
0.410163
-0.653202
-0.308436
-0.365629
0.222575
-0.000821862
0.820895
0.226678
0.0883592
0.490264
-0.282689
-0.605967
0.0316858
-0.648743
0.927538
-0.517357
1.55506
-0.752762
-0.413768
-0.49787
0.370725
-0.14649
-0.0753936
-0.722856
-0.129263
-0.126623
0.221107
0.472996
1.15161
-0.0332132
0.682573
0.353198
-0.928214
1.04776
0.430588
0.192814
0.742302
-0.592331
-0.296166
-0.343044
-0.227841
-0.0389311
-0.336072
0.407236
1.23726
0.316924
0.33018
0.674454
-0.773662
-0.110989
-0.65721
-0.69342
-0.085363
-0.374757
-0.306515
-0.0828217
-0.606723
0.153193
1.33127
1.16069
0.538009
-0.614268
-0.659554
-0.566895
-0.932217
0.437197
-0.0512967
-0.119875
-1.0756
0.807575
-0.0557801
-0.372832
0.946966
-0.0170382
0.798443
0.671916
0.975356
1.29055
0.059832
-0.068178
-0.177254
-1.05916
-0.00316886
-0.245745
0.461052
0.35658
-0.478609
0.474869
-0.107501
-0.695853
0.415826
-0.557845
0.903255
0.130293
1.17146
-0.198219
0.358946
0.12599
-0.663116
-1.40889
-1.2572
0.487504
-0.940556
-0.784518
0.11511
-0.762711
-0.04648
-0.02798
0.704288
0.856056
-0.0992833
0.0812918
-0.0535385
0.411066
-0.994365
0.180765
-0.644727
0.153334
0.120583
-0.365952
0.269211
-0.218273
-0.764498
-1.15055
-0.975916
-0.0326207
1.16072
-0.438255
0.374203
0.326572
-1.01109
0.0755537
0.866201
0.688062
-1.10765
-0.243244
0.245789
-0.875671
-0.243125
0.242354
1.1016
-0.452822
-0.344731
-0.123047
0.0525911
0.04632
0.485154
-0.878384
0.0965907
-0.597108
0.0262647
-0.107498
-0.282331
0.153865
