-0.425707
1.07983
-0.1243
0.357934
0.030506
-0.7584
0.919194
-0.990771
-0.310494
0.0518041
-0.0501797
-0.415526
-0.250733
0.549837
-0.426748
0.461057
0.0323906
-1.08618
0.432319
0.744511
-1.28673
-0.911334
0.347375
0.696692
0.11702
-0.193164
0.0892228
-0.631167
0.390862
0.686287
-0.732199
-0.861003
0.713259
-0.238439
-0.261488
0.596123
0.252246
-0.394396
-0.674399
-0.621134
0.611311
-0.321924
0.483151
-0.0333951
0.240173
0.0805208
0.0562217
-0.67649
-0.90855
0.442697
-0.813341
-0.512204
0.216503
0.0499917
0.0309827
0.48171
-0.6266
-0.0422679
0.755056
-0.620613
-1.121
0.269584
1.10491
0.439493
0.219985
0.457712
0.41119
0.599478
-1.02782
-0.651339
-0.590295
-0.724208
0.413369
-0.715833
-0.50486
0.282044
0.619768
0.700119
-0.712936
-0.493807
-0.104381
-0.158756
0.0381967
-0.378791
-0.833133
-0.563558
0.391856
-0.835324
0.432899
-0.534602
-0.373316
-0.082449
0.684422
0.100134
-0.388859
-0.785333
-0.695135
-0.564061
0.836985
0.279839
-0.206242
-0.236596
-0.728376
0.000189514
-0.444736
-0.332671
-0.0140807
-0.544327
0.888103
-0.539703
0.645305
-0.14732
-0.973995
-0.426413
0.303249
0.511331
-0.933007
0.128913
0.119791
0.471091
-0.531031
-0.0542311
1.22236
-0.616592
-0.134966
-0.249899
-0.642928
-1.0211
0.638605
0.104395
0.847062
-0.181883
-0.735629
-0.0318683
0.481309
0.523274
-0.564987
0.132121
-0.324048
-0.72072
-0.65984
-0.675195
-0.0546529
-0.834258
-0.646187
0.0619811
-0.118658
0.221318
0.258303
-0.712793
-0.377585
-0.593747
-1.15982
0.217782
-0.17364
0.764974
-0.358417
0.453868
0.41424
0.182041
-0.232017
0.23695
-0.410304
0.962474
0.0449118
-0.27507
0.625583
-0.678824
-0.60925
0.300798
0.273424
-0.458192
0.338647
0.0402187
-1.32099
0.0867139
0.207356
-0.632347
-0.0056453
0.39062
-1.11973
0.0204013
-0.777227
0.104112
-0.146221
-0.449881
-0.262871
-0.107825
-0.357089
0.215709
0.66557
0.145156
0.124073
-0.401355
-0.43854
-0.534156
0.139618
0.205227
-0.0668173
-0.012111
0.36846
-0.578811
0.646436
-0.386339
-1.1463
-0.386271
-0.350526
-0.700665
0.00693278
0.346061
0.450628
0.782311
0.445602
-0.833693
0.48056
-0.0697666
0.927166
0.397575
0.371602
-0.781324
1.28353
-0.803552
-0.796513
-0.103165
0.593952
-0.709336
0.0581298
0.205629
0.836895
0.694212
-0.438532
0.0903295
-0.790526
-0.756362
-0.728327
0.364664
0.360757
0.747348
0.771027
0.248407
0.907626
0.212975
0.986779
-1.08877
-0.488563
-0.0566307
0.240818
-0.707696
0.48569
0.620208
-0.488947
0.648693
-0.71655
-0.817765
-1.17452
0.571891
0.224621
-0.954305
0.0539283
0.622351
-0.246762
-0.194208
-1.30028
-0.375263
0.643156
-0.498392
-0.727489
-1.26044
-0.665594
0.660488
-0.359208
-0.214675
0.118887
0.545908
0.70594
0.356564
0.145808
-0.0431705
-0.365632
-1.01387
0.0831317
-0.619165
-0.503344
-0.122967
0.75549
0.771409
-0.209065
0.464819
-0.308757
0.571253
0.476421
-0.0424225
-0.644284
-0.406548
-0.83094
0.351836
0.570466
-0.127566
-0.536609
-0.593515
-0.732182
0.548601
-0.293961
-0.218465
-0.152727
0.626523
0.207397
0.477949
0.79389
-1.0334
0.117772
-0.822073
-0.727263
0.690325
-0.273315
-0.0768146
-0.21573
-0.204258
0.665905
-1.20981
0.876046
-0.754787
0.461351
0.317032
0.608195
0.271782
-0.655325
-0.594936
0.0267299
0.0365417
-0.478485
-0.717956
0.433496
-0.535242
-1.02271
0.0341068
0.318327
0.303022
-0.995972
0.414069
0.356804
0.177986
-0.493098
0.516254
-0.104114
-0.145927
-0.265181
-0.11766
0.113735
-0.0868435
-1.23285
0.277564
0.248055
0.234305
-0.317824
0.240107
0.334791
0.0675616
0.14472
-0.615022
0.875831
-0.612282
-0.182653
0.705877
0.240776
-0.870235
0.220262
0.676901
0.729314
-0.458328
-0.216871
-0.935726
-0.403631
0.0387193
0.0136725
-0.719405
-0.972597
-0.676549
-0.293277
-0.787764
-0.336486
-0.238709
-0.24795
0.389424
-1.06678
-0.815685
0.181724
-0.421223
-0.283459
0.929597
0.224325
-0.309512
-0.582146
0.881143
-0.0295732
0.565416
-0.18992
-0.824682
-0.919621
-0.980217
0.332382
0.167911
0.0174067
-0.267851
0.408562
0.536564
0.48135
-0.457822
-0.489004
0.174261
0.057142
-0.147997
0.555189
0.309985
-1.19849
0.466482
0.00694638
0.902095
0.161191
0.0174598
0.324213
-0.588355
0.0327035
-0.00613245
-0.412153
0.331594
0.120263
-0.574391
-0.298219
-0.00202025
1.09288
-0.366212
-0.0411359
-0.269626
-0.0113647
0.111183
-0.0603605
-0.365796
0.231502
0.313119
-0.323238
0.896645
0.0856152
-0.335648
0.376094
-0.0287504
0.118999
0.536492
0.629454
-0.0808529
-0.0917079
0.233026
-0.697032
-0.511016
0.0592264
0.256702
0.603829
0.606955
-0.037676
0.0325419
0.202599
-0.603453
0.0808284
-0.485152
-0.488316
0.424286
0.600111
-0.603231
-0.340767
-0.0422424
-0.0771641
0.0622311
0.387548
0.334896
0.843622
-0.729204
0.554529
0.305789
0.792501
-0.483177
-0.392797
0.231513
-0.0828083
-0.581816
1.13908
-0.178912
0.579304
-0.899646
0.92496
-0.553855
-0.637368
-0.262285
0.392533
-0.540751
-0.337069
-0.725648
0.220466
0.771415
-0.689898
0.967235
0.500585
-0.407319
0.708328
-0.813358
-0.374127
-0.301984
-0.636691
-0.964221
0.376555
0.650029
0.582048
-0.0855604
0.728468
0.0149158
-0.472056
-0.143352
0.95014
-1.00375
0.199948
0.232009
-0.505664
0.612249
-0.845501
0.486626
-0.0746649
-0.0757929
-0.233207
0.0654603
0.46358
0.310564
-0.539499
1.05741
0.407986
-0.23695
-0.159269
0.85457
-0.770016
-0.296256
-0.460543
0.721701
-0.0139338
-0.148972
-0.424291
0.550501
1.13771
0.187138
0.892031
0.284126
-0.249275
0.158652
0.444816
0.300414
1.11359
-1.0432
-0.320102
0.849373
-0.226879
0.933547
0.00101045
0.673486
0.492755
-0.52513
-0.635335
0.97383
0.333643
-0.00878705
-0.203428
0.761602
-1.04104
-0.530076
0.0263094
-0.293413
-0.773606
-0.621029
0.22397
0.410333
0.418093
0.48595
-0.431281
0.485747
0.566624
0.351172
-0.173429
-0.0540218
-0.339422
-0.625
0.718486
0.648944
-1.17714
-0.354295
-0.301509
0.233306
-0.12171
-0.136333
0.362246
-0.0366377
0.415712
-0.415167
0.623297
0.192506
0.246004
0.0452016
-0.2937
0.180586
0.112701
0.38982
-0.386679
-0.0291497
-0.485283
0.217339
0.00597252
-1.12511
0.323982
0.738394
-0.0680746
0.00334782
-0.0862583
1.06334
-0.371092
0.542726
0.144161
0.928326
0.0787592
-0.320033
0.577914
0.274803
-0.305264
0.240293
-0.474449
0.33129
-0.832086
0.696924
0.784318
-0.582168
-0.0674432
0.387242
-0.267667
0.914532
-0.674218
-0.925726
-0.785217
-0.0966007
0.437982
0.20649
-0.00941941
0.390432
0.224895
-0.411577
0.775314
0.655102
0.391445
0.349861
0.616208
0.295541
-0.0307304
0.118053
-0.56192
-0.403411
-0.257325
0.842878
0.737982
-0.787615
-0.767903
-0.84092
0.0631565
0.0430839
-0.710186
0.0163094
0.193575
0.418562
0.538424
0.583334
0.897096
-0.0187344
-1.22694
-0.625343
0.647452
0.266345
-0.294779
0.000327363
1.16172
-0.462532
0.654264
-0.453861
0.247359
-0.155786
-0.148576
-0.187154
0.730465
1.31086
-0.560473
0.825968
0.660381
0.083845
0.696715
-0.622481
-0.539836
-0.696369
0.63365
-0.828464
-0.0552695
-1.08126
0.375717
0.53565
-0.587193
0.0688042
0.968539
-0.227795
0.0273498
-0.88708
0.247694
-1.07021
0.298714
0.120812
-0.56798
-0.512207
0.616785
-0.546339
0.656832
0.918874
-0.204005
-0.66924
0.034213
-0.633048
-0.853418
1.12756
0.660593
-0.496086
-0.576023
-0.585823
0.287815
-0.0381127
-0.569358
0.997653
0.940848
-0.0715633
-0.851921
-0.736095
-0.231978
0.619979
-0.660542
-0.71181
-0.396477
-0.398461
0.149621
-0.875572
0.130229
-0.379851
-0.231688
-0.0603369
-1.18053
-1.14086
-0.586579
0.0533736
-0.703868
-0.852514
0.75646
-0.829569
0.283047
-0.631459
-0.465515
-0.0272144
-0.759856
0.278428
0.104778
0.10626
-0.308913
0.884878
0.167702
0.938344
-0.154888
0.573289
0.357097
0.662579
1.16725
0.298319
-0.640304
-0.428616
0.582245
0.692516
0.935881
0.980482
-0.157116
-0.303366
-0.070051
-0.380897
-0.086341
-0.766451
0.355243
-0.993698
0.194923
0.486199
-0.597203
-0.409562
0.215889
0.0938205
0.272618
-0.0202197
0.448558
-0.0981324
0.393358
0.287411
0.722379
0.208513
0.0799025
0.728498
0.46529
-0.576946
0.0132159
0.69675
-0.380848
0.748276
0.625449
-1.17418
-0.309677
-0.00747239
-0.576537
-0.234641
-0.290658
0.619965
0.190707
-0.33692
1.00413
-0.61019
-0.502366
0.19864
-0.544631
-0.44841
0.0968536
-0.976497
-0.648122
-0.193711
0.267393
0.305865
0.693252
0.875554
-0.934166
-0.932447
-0.223017
-0.0955167
0.411566
0.130739
-0.718428
0.0124681
0.869326
-0.0257807
0.363938
0.228554
-0.835746
-0.0529963
-0.165343
0.0145499
-0.698276
0.0684163
-0.378394
1.20976
1.04795
0.317912
-0.0513737
0.247229
0.109014
0.0178904
-0.0733231
0.0467408
-1.15817
0.846244
-0.904403
-0.718094
-0.339947
0.776975
0.0395187
1.07179
-0.73581
-0.671301
-0.0519963
0.677828
0.0973836
0.312816
0.791583
-0.309389
0.121063
-0.202156
-0.233112
0.0231504
0.177229
-0.336744
-0.859816
-0.616322
-0.248812
-0.345264
-0.360611
0.0482205
-0.543852
-0.497988
0.334755
0.526756
0.46473
-0.372742
-0.65434
-1.34173
0.344546
0.0319543
-0.462443
-0.419168
0.13407
-1.06498
-0.284754
-0.347909
-0.228208
0.810027
0.62143
0.630409
0.389456
-1.03347
-0.17181
-0.504705
0.925082
-0.099969
-0.00872029
-0.394604
-1.34876
-0.567495
0.35124
0.656636
0.707654
-0.678945
0.0473124
-0.554855
-0.990416
0.691667
0.796562
-0.568391
0.454521
-0.120824
-0.0909036
0.029183
-0.324949
-0.538051
0.602845
0.379243
0.369979
-0.057253
-0.0494067
0.622656
-0.0760743
-0.481466
-0.0981292
0.14847
0.295128
0.593243
-0.337528
-0.388136
0.11628
0.0318474
0.72323
0.0539632
0.974362
0.756339
-0.275104
-0.982018
-0.319346
-0.147334
0.0432339
0.215124
0.156692
0.471271
0.799917
0.53824
0.543439
0.465043
0.768703
-0.21439
-0.404589
-0.485247
-0.504798
-0.0706051
-0.308192
-0.174939
0.174233
0.338423
0.722165
-0.612949
-0.0385026
-0.062329
-0.458272
0.990494
0.202541
-0.0790138
-0.42597
-0.41757
-0.869912
-0.467403
-0.306678
-0.572687
-0.0548564
-0.0611298
1.19896
0.102505
0.0821939
-0.130891
0.548542
-0.401929
0.11993
-0.463098
0.251833
0.601167
0.773235
0.915867
0.202888
0.627161
-0.812435
0.0737137
-0.654084
-0.354646
0.0251743
0.942212
-0.505734
0.559203
0.870635
0.785318
-0.157448
0.175216
-0.780408
-0.282231
0.336686
-0.523788
0.619116
-0.504614
0.74968
0.735616
0.62713
-0.733486
-0.488563
-0.0474675
0.543856
0.18417
-0.56283
-0.00467477
0.10952
0.147552
0.270946
-0.770458
0.0563659
0.363405
-0.667232
0.457044
-0.690767
-0.296883
-0.372716
-0.946584
0.13023
1.10512
0.484188
1.00827
0.424417
0.440583
-0.519848
-0.00496531
0.606233
-0.82635
0.912716
0.102753
-0.876194
0.502774
-0.362213
-0.0606265
0.532074
0.956675
0.441322
0.826878
-0.218237
0.130451
0.869147
0.25212
0.449256
0.636843
-0.0334949
-0.640098
-0.128396
0.685755
0.382467
-0.50219
1.06019
0.54624
-1.00737
0.698105
-0.695554
0.197146
-1.27623
0.976345
0.181149
0.651486
-0.440394
-0.90187
-0.474607
0.177651
-0.743196
-0.572222
-0.825136
-0.626523
-0.592467
-0.148507
0.013506
-0.379875
0.354416
-0.00641355
1.32482
-0.81539
0.182409
0.336862
0.33575
0.578908
0.0649213
0.733355
-0.118947
-0.470422
-0.461664
0.394745
0.795553
0.252936
-0.862611
-0.444885
0.47875
-0.986008
-0.32629
0.0917836
0.216901
-0.812066
0.243649
-0.575832
-0.865164
-0.209029
0.0121462
-0.723727
-0.735935
0.646956
-0.36562
1.22978
0.734559
0.0675877
0.640785
0.292496
-0.245926
-0.206994
0.827147
1.04577
-0.323292
0.391305
0.291795
0.74131
0.00184718
0.543375
-0.115025
-0.133687
-0.554589
0.022649
-0.526809
0.518372
-0.631724
0.530582
0.240768
-0.951272
0.211234
-0.373194
-0.35445
-0.564789
0.115437
-0.0561226
-0.332793
0.328233
0.607403
-0.322533
0.59822
-0.443537
0.667073
-1.29207
-0.621095
0.259408
0.587031
0.599439
-0.698295
0.289244
1.1083
0.326965
0.55682
-0.207846
-0.735809
0.333492
0.19679
0.361007
0.343496
-0.0559938
0.155394
-0.0768399
0.5442
-0.87893
0.258206
0.799273
0.116566
0.0680596
-0.0570845
-0.838304
0.378443
-0.564883
0.0891138
1.04701
0.0414356
-0.704155
0.152965
0.485832
-0.0403813
0.0252031
-0.132964
0.80584
0.135711
-0.433714
-0.063389
-0.618958
-0.329134
-0.779096
0.494058
-0.577491
-0.0076571
0.113134
0.676183
0.0273534
-0.42297
-0.599118
-0.906616
-0.274712
-0.158009
-0.373063
0.00555013
-0.0562343
-0.419699
0.342209
-0.714828
0.77478
-0.0848111
-0.758626
0.591221
0.123558
0.321919
0.791177
-0.229857
1.03713
-0.744488
1.03154
0.113542
-0.376848
0.243365
0.166997
0.0419945
-0.601284
0.843899
-0.295333
-0.762756
0.774184
-0.181037
-0.843605
0.975657
0.839184
-0.715418
0.284533
-0.783297
0.385599
-0.0150673
0.145557
0.0813444
0.246907
0.0694769
-0.801878
0.476228
0.350565
-0.0617248
-0.632417
0.0818099
-0.320083
-0.0448956
0.503171
0.786486
0.841373
0.0576926
-0.0414841
0.0103941
0.536122
-0.343134
0.62212
-0.00574852
-0.58519
0.301717
-0.134806
-0.19044
0.114799
-0.303267
1.16485
-0.209807
-0.364922
0.44807
-0.678794
-0.131251
0.039719
0.197638
-0.705756
-0.292521
-0.253298
-0.375161
-0.19866
-0.364849
0.394587
-0.209386
-0.927853
-0.291395
0.496604
0.874664
-0.125071
0.70003
0.814207
-0.237455
-0.759108
0.813793
0.349282
0.0441811
0.366458
0.476337
-0.103997
-0.0260089
-0.286245
-0.889135
-0.713243
0.844665
-1.02597
0.437859
-0.658281
-0.488533
0.458392
0.214365
0.309452
-1.03547
0.325012
0.360831
0.347048
-0.465028
0.579799
-0.391125
-0.496572
-0.614754
-0.407198
0.614124
0.0690329
0.993208
-0.86976
-1.15676
0.326034
-0.549136
-0.954404
0.273347
0.537877
-0.794539
-0.0751362
0.0671231
0.345092
0.532964
0.0121154
-0.704835
-0.790393
0.601
-0.433796
-0.0695501
-0.78783
0.8346
-0.157009
0.237702
0.0364956
0.293049
0.738736
0.223482
0.410786
-1.01503
-0.172085
-0.0864336
0.329954
-0.290285
0.533178
0.0310083
-0.644925
0.0598851
-0.265803
0.448086
0.143718
-0.161268
-0.00842908
-0.968592
-0.275663
0.305317
0.213474
1.40046
-0.647247
-0.568537
-0.28842
0.339294
0.614121
-0.774341
-0.908373
-0.264941
-0.665413
-0.790542
-0.285037
0.403332
0.38807
0.560214
0.424652
-0.679787
-0.893462
0.203962
0.745423
-0.448887
0.366223
0.0837356
-0.25102
-0.722322
-0.584642
0.451837
0.418823
-0.549002
0.547433
-0.783434
-0.669421
-0.683715
-0.305221
0.00511922
-0.630471
0.187224
0.0238048
-0.869204
-0.0177214
-0.149673
-0.273845
0.142076
-0.0674933
0.663135
0.388544
0.887925
-0.120177
-0.0479677
0.727854
0.309744
0.535092
0.772994
0.671361
0.310994
-0.713076
1.02151
0.193712
0.174028
-0.0755384
-0.129175
0.18426
-0.197309
0.30737
-0.0203665
-0.64144
-0.385037
0.702998
0.468871
-0.228295
-0.701329
-0.781749
0.0426052
-0.374572
-0.52531
-0.586811
0.2728
0.488622
0.458474
-0.527761
0.654141
-0.839182
-0.424283
-0.568234
0.553391
-0.989021
0.877739
0.78835
-0.57183
0.0510818
-0.380755
0.20672
0.3532
-0.359827
-0.416923
0.0696902
-0.514865
0.257679
-1.2792
-1.26899
0.262571
-0.61207
0.205028
0.521441
0.448993
-0.620528
-0.638264
-0.284001
0.587567
-0.413072
-0.599608
0.463078
0.561747
0.600961
0.574989
-0.540114
0.62242
-0.0631364
0.2773
0.548231
-0.705332
-0.219512
0.886126
-0.116034
0.957426
-0.278161
-0.679089
0.717739
-0.326054
-0.639873
0.498419
-0.472866
-0.16205
0.0996968
-0.288264
0.624289
-0.310461
-0.0231022
-0.788641
-0.496703
0.190574
0.182196
-0.511043
-0.298661
-0.270732
0.290304
-0.269635
0.00740901
0.289521
0.919081
-1.51205
-0.722625
0.21403
0.141132
-0.312948
0.564963
-0.00503097
-0.439486
1.28053
0.437344
-0.885645
0.37464
0.60745
-0.463971
-0.236844
-0.270253
0.331035
-0.547993
0.198553
-0.511259
0.645106
0.415695
0.836238
0.61763
0.141207
-0.516509
0.785361
-0.261804
-0.721028
-0.55333
0.185672
0.962207
-0.70911
0.907502
-0.0676556
-0.545961
0.733536
0.676193
0.352802
0.229754
0.894351
0.296737
-0.042349
0.98341
0.22835
-0.551037
0.0536173
-0.531336
-0.804365
0.540752
-0.188929
0.183803
-0.633939
0.436259
-0.825012
0.0470458
-0.737261
0.272054
0.354886
0.000775521
-0.294096
1.12928
0.868726
-0.231096
0.746366
0.00655425
-0.779629
-0.0488233
-0.45762
0.860091
-0.329545
0.178133
1.01018
0.292874
-0.246979
-0.159503
-0.242179
-0.231226
0.271357
0.705733
0.510182
1.04113
0.83896
0.221489
0.756909
1.01489
-0.532454
-0.0683514
-0.0367416
0.457205
0.564076
0.661172
0.283363
0.232831
0.477359
0.652448
-0.671182
0.789848
1.34002
-0.154381
-0.736908
-0.930958
-0.0222307
0.771454
0.807369
0.5196
-0.530603
0.154801
-0.0967686
-0.39983
1.14835
0.990454
-0.530772
-0.0939654
0.711864
-1.07031
-0.281543
-0.66553
-0.0884638
-0.586268
-0.374927
-0.886857
-0.623855
0.170298
0.588266
0.0501195
0.915726
-0.277012
-0.267796
0.0846204
0.547747
0.698932
0.956619
-0.492715
0.518631
0.790629
-0.045904
2.1347
-0.376562
-0.474587
0.656357
0.58767
0.256244
0.377798
